-0.3667659379618024
0.2309178752593578
0.010370477016241905
-0.45092098074766646
0.4636191382228823
0.2790175196742937
0.3549044174810004
0.43763659805452787
0.24829880897595602
-0.18884355584108237
0.1515226924686438
0.4340467984973923
-0.06214341779056828
-0.007141063674166611
0.40747436575610413
0.3450716627278089
0.4749913539745296
-0.07014157625287536
0.2102155015665147
0.36270248215037243
0.3546667282078538
-0.24650932327160813
-0.00729798286358135
-0.17755813896868966
0.18924935173028967
-0.050706983275167726
0.3587231091749978
0.1396852649257383
0.1285312739549611
-0.2400224865014342
-0.31070620969483514
0.47615700784236653
0.10553468465758926
0.04740351277496394
0.3229266121097664
0.11675292889524798
-0.20729003355160613
-0.14451971147902742
-0.14584410879557208
0.25172792732870836
-0.1015979293259202
-0.3170841082008566
-0.3788499467799216
0.48399983176062117
0.47806006790341743
-0.3706745648447462
-0.2377052217149147
-0.29416111760796787
0.37782782014909905
-0.40725207382230816
0.3474305736994225
-0.4950359162807086
0.09381250595168762
0.41771503495381007
-0.25817895593385715
0.22245467757942983
-0.42403379534250757
-0.0576803422930063
0.28687119589145643
0.13435830640845414
-0.3889695643970485
0.46500354527852855
0.22870883168470024
-0.283324566189818
-0.47902691412633397
0.12430049574403441
-0.17862810473794843
0.3238562862919982
0.05377524669539394
-0.1660451823710536
0.46808420813541435
-0.2973983198814007
-0.4567992816579895
0.498150540763819
0.4873413372697239
-0.25166585654931567
0.22499258658616472
0.40620963510823166
-0.4761529099203888
-0.19178653552797476
0.4208971882570061
0.3116290964850857
-0.33460421571432114
-0.3311381255357769
-0.4523620360382656
0.3652402788890959
0.16045180419098737
-0.3050496964673464
0.2674738950131131
0.4638361548663564
-0.385290637364928
0.4133694765375779
-0.3734095106624468
0.26830018536579187
-0.06510847349762765
0.020114857975702467
-0.3758645542703631
0.20749132406251902
0.14824893554896834
-0.09685239228824942
0.007435496864528771
-0.11633464806341058
-0.2028040503716536
-0.4368497604444059
-0.05305848241104102
-0.05335493676677857
-0.3684943685280762
0.22081515396024376
0.4384531592734587
-0.12832591057125953
-0.27073381531492996
-0.10311355671354587
0.20829748614279497
-0.0039573146899544685
-0.1863263919404642
-0.06374358601727785
-0.09656165495865347
0.43108923634089497
0.33789045108422294
0.06276274085185159
0.4715986262019211
-0.17728540049713026
-0.3765386269313428
0.4684724106391905
-0.2756622931887042
-0.12750123834266902
-0.42093256429989784
0.35569099376295216
0.39011627002761534
0.37494807266535785
0.13106764489778489
-0.38548365426503434
-0.14773526490367006
0.32217748164717946
-0.24381246223295472
0.4969891495064908
0.19761541222096568
-0.3302912239686219
-0.3618270326415673
-0.3145407360040456
-0.42542847733833583
0.3305754557680047
-0.07642132594627231
0.3159189051408185
0.45918274166982004
-0.39835809637228187
0.3810019511375647
0.3194407151365691
-0.4941836613855342
-0.16805519984310113
-0.42530392224971475
0.4206168193304512
-0.4729137390875057
0.18741004064628308
0.2992268079083556
-0.2767179385296799
0.3030076496153202
-0.3547967965666065
-0.20147498587599832
-0.25689883419102116
0.24827398870508066
-0.45672494038453987
-0.0936575691608869
-0.39284908048652906
-0.11202143468433172
-0.24249773132381047
0.2326833082498363
0.33118891276824053
-0.1343269690130423
-0.19735069844635322
0.2609678477616801
-0.3899467569072345
0.12528139689662776
0.18700033674335992
-0.010153209355843776
-0.08054249499886994
0.059366404612379776
-0.26856615568779313
0.01641943267269343
0.49218681320807706
-0.06105754926685355
-0.47649946304348484
0.47996877886746997
-0.27949507057189465
0.43470966248723314
0.4470829170865998
0.3970008727101993
0.02417454835271073
0.06337795237413564
-0.4355002953266484
-0.10225634688706468
0.4747315139531442
-0.4355175927835418
0.48394461004204775
0.06965695871091655
-0.08502320807041468
-0.23160300874703776
0.3455885281169329
-0.23638195527803196
0.15942209472141955
0.015167119704032691
