-0.04034987338474886,1.4299599256380071,-0.04161404305696424,-0.11363194682489515,-0.7927009879083634,-1.6474544744495494,-0.7406793142907642,-4.441243082693134,-0.17348206257577115,0.0019082369970099442,2.563705107092658,0.21621320523176127,0.3480698498366196,-0.9092919827985179,-0.5548985072074372,2.505841911929815,-1.849317402606171,-1.4847966395076504,0.3332691172440741,0.06872423019776391,-6.949323841112418,0.6304620314569793,3.2719569482451996,8.780578554684245,0.9452301982154413,1.022107984718178,0.03254946251245523,0.07689147952071777,0.7015157532202112,-0.33378488429872755,-0.08829095031974919,-0.0031435336733072004,0.13073407428409137,0.7014703115717169,-3.6980496266919274,-1.3171227103881915,-0.4251711219340364,0.20383600142080674,-0.0675812969971388,-1.8893156830738496,0.4732526193361558,-0.7815456451866633,-1.4247010821025667,0.9853904219346807,-0.3290585568794603,-0.8317396925022644,-0.6571263361930608,-2.4404491806258086,-0.5774218995612089,-2.048131311014343
-0.4834445102703231,2.8752418345565385,-1.0603843078518826,0.16055052350973764,-1.6794966587412243,-1.8749544727673675,-1.9142742278044484,-3.1399281451643932,0.06273681720659276,0.0012191969078590539,3.474312348771756,-0.04799202443000072,0.12426645492342822,0.13090683239460726,-0.7952021757382688,-1.5750754719228162,2.396001138657607,-1.7210742902348648,0.5247195070486735,-0.46249197455592783,-8.0039637530968,0.16390355240030205,3.7019248215175464,7.6348668627589875,0.7996733103904906,0.9403449880067593,0.21729908482670593,0.1864647595893956,0.1969668326686747,-0.520736746121753,-0.3160897584864267,0.34421846594552036,0.3697129920593652,0.24485926209323475,-5.567210485925838,-1.367550313750877,-0.17828367091095096,-0.07196412877674788,-0.7473769758019472,-2.466093668602857,0.43065381354475607,-1.835730725235568,-1.9719963624804773,0.5686970169401698,-0.7928657979774664,-0.7925217768811194,-0.9632017271970287,1.254041552417525,0.14375074172695185,-2.6512688000469793
-0.016599883293080826,2.436535681869357,0.18994257682265867,0.0669451030003923,0.8535196715008134,2.008050978907113,-0.5816679863468109,-4.179360227320534,0.20298511647970308,0.650837521316662,3.6787655091583655,-0.7260401494013753,0.7004828781429203,1.0149258972655222,0.19419997142591822,0.39252338525131897,-1.4768954803646288,-1.3253661242144208,0.2077736981675267,-0.2850867191082678,-6.462459777193725,-0.24443734948701148,2.6366268950224905,8.100291039170004,-0.6118608448954616,0.8260241551149121,0.4106015683869528,-0.08960305800067864,0.19725866147795199,-0.024592157470538736,-0.917494772114805,-0.32638020081488256,0.47402008862345857,-0.1323621918441935,-5.818025670862188,-1.3872992385798213,1.640795509720899,0.3795106332381785,-0.5976411623059745,-0.462777727432691,-0.0682342365135217,1.3420998521005476,0.7854975024028796,0.22040502933514378,1.054655694517051,-0.5089417673689857,0.04159645557449919,-0.0249497118778685,-0.6459517162417934,-3.0510628904266173
0.2127310476101618,2.8678405865056122,-0.4487029235109829,-0.7592094695785769,-0.33992362230343715,0.47314729602193667,-0.5660387480805235,-3.269318406453305,0.1982190097099532,-2.1527209824167524,3.22995579024563,-0.8545669469271083,0.6175742631254476,1.339149552389874,0.27514103379654437,-1.508172588533319,1.798772491691308,-0.8722428499496726,0.49199530866822216,-0.396267938759867,-6.515449967127628,-0.174728621160877,2.5836290231907024,6.928883532165623,-0.24140926389695105,-0.13843139636633686,-0.009127954162854243,-0.176260376189261,0.14745114384603994,-0.1204712134127361,-0.6282357520993814,0.849101832394212,0.41773747854699816,0.10237499032324304,-5.521204985014121,-0.3952316839543204,0.354679030575877,0.5577936938638708,-0.5476666581142021,-0.07648808762640556,-0.4690649981697087,0.3384061822367482,0.7677751109350114,-0.6802547351793424,0.23795556282332697,-0.21399243697514025,-0.5058581203456286,1.355263732414856,0.9051788727091025,-3.189119493673818
-0.6708951528222781,2.162235434160862,0.21036292043070498,-0.056898442696372016,-1.0019192781816635,-1.1636884970441266,-0.0977077691487411,-4.9436748989601496,0.22142630626081242,0.29751690994429186,3.4448717602416434,-1.5986624838918249,-0.6575685144648101,0.7311092723948756,-1.2336658285093516,3.0748133293689666,-2.1148158627298113,-0.7711405088173954,0.2636598138133068,0.21302760465755022,-4.381309523751776,0.7471680809379233,2.042099744152089,7.825787910561945,0.28667278731193985,0.24249469350294184,0.7712830681828455,0.1895151130854085,-0.42682928776893425,0.7668563825143017,1.9120687362042839,-0.7000744373309247,0.02925901544828267,-0.04060087561909017,-4.803985769267387,0.977463973059054,1.5714405726529528,-0.27107984608525204,-0.19374030538984238,1.1052326268242858,1.5063186838583422,-1.9285174695234386,0.31263058905630464,0.3090505049643844,0.7726726027671493,-0.08605341224221646,0.18560722045174238,-2.6111057777093305,1.9490727570172728,-2.305999830870234
-0.07052589580078698,0.7912309746035648,-0.1194013241542535,0.36179349219719037,-0.09554178427374714,-2.087129986454728,0.6578629180405248,-4.100492683169433,0.3944646234802635,0.5569855335625438,3.585415606145991,0.9293229901612889,-2.114461917120727,0.547942963714314,-1.8470191112795076,-1.5957880215734115,2.1071845758653183,-0.28199692710561874,0.2548547792103262,0.1560092441064098,-4.746855139722141,0.9568317795137453,1.8031641601459598,6.9367014985065065,0.18763869849099948,0.1316621171915326,0.0729889024820538,0.0009340849005386732,-0.20707824548513518,0.3476117052969561,-2.2584955450218533,-1.6258319768889506,0.041046719590649754,0.05895704159844295,-5.586708946186551,1.892430944143165,0.21497492884812236,-0.2856036012029853,-0.4580125940917375,0.9078247961602774,0.37358539855316614,0.060083418042953085,-2.849420961342869,0.07632639940767973,-0.2549983895444718,0.2982411402744336,-0.04958227531751398,0.9553223037468789,-0.3153251454575603,-2.5616605510824093
-0.21279853372966331,0.9398017263986983,1.4130088110845629,0.8708645482424905,0.05841928929151924,1.7732245432440732,0.6828148941606852,-4.485793686153806,0.445594659370062,1.2392769458638198,3.665416176902393,0.5333784655377082,-1.0978524813821997,0.24780224656018565,-0.6978335742738829,0.7131624549165746,-1.454607505313444,-0.3165944927478745,-0.24021838580364746,-0.05143550590740525,-3.9576823819456126,-0.9982956799600935,2.1457596675171375,7.052891388393359,-1.375350166165963,0.20736172450316012,0.11548608944510921,-0.18200777286438286,-0.7598068749172819,-0.32488898557327683,0.09780964021515971,-0.5544251205594485,-0.47019200021822066,-1.0857189564002268,-4.915028817527698,1.493190540638969,0.09403550910397637,0.017226665545216763,-0.8755217308839259,1.278817330362954,-0.041319454427607406,0.9928719597940293,-0.15910165350863895,1.3977352111867873,0.6228481894796668,0.5197096227087187,0.6424019204048794,-0.10530504055501484,-0.9390249898805964,-2.67400209951105
-0.552698102572641,0.7926649480859768,0.7534312870862285,0.41372394681158753,0.5910474471292303,0.36272752849754447,-0.3366910746341029,-3.5679835664694597,-0.22426805949619225,0.7760874958481824,3.0708651932856115,0.0655928829680338,0.3738131585165565,0.7043763644919093,0.9030261951399178,-1.8984542756622662,1.783426214976757,0.17286443193540751,-0.5391636346195973,-0.39784412047292866,-3.7763173928795695,-0.747861590839175,1.7410151905552753,5.776221096346287,0.7269707912912424,0.0635678033245049,-0.5295255537705619,0.028094018590836024,-0.9997801764916276,-1.2409212474105125,0.23745442044179138,0.0510884647026299,0.37125371377157057,-0.24931291304038716,-4.755210547811496,-0.025724535537717832,0.5301384520672108,-1.0735226769172719,-0.025835194479790453,-0.12095342347312638,0.7923242770880328,0.3868503339397715,0.5549554021683766,-0.42967446032552775,-0.33598625103087987,0.09426396878977174,-0.05508113268926331,1.3395750399112538,0.9714896574407362,-2.7363375666140355
0.10697055994657785,0.18489671535059513,-0.33936901216805354,0.020114871316985864,0.2793269051267546,-1.1204796273285211,0.10740119365919965,-4.88154675844494,-0.19942717531733897,-0.8715224455394542,3.431194635391125,0.12830295890005913,0.14299146999593537,-0.23577131107570798,-1.0801062102836951,3.0531707296987234,-1.9492471902624844,0.13300068363897982,-0.6900567438950527,-0.5295479774022122,-2.872951236215356,0.14811610098576802,1.548216995526429,6.966682252332039,-1.1690530271528499,-0.9175821147085804,-0.11076590983857536,-0.46839702702603164,-1.458535256720881,0.1676937080225288,2.0194843491575774,0.22604518835042373,0.06458249331712541,1.7351430618748587,-4.145035318925764,-0.5709775576250993,-0.18227669031487412,0.06377771877543947,0.33524783715803974,-0.17963264682130148,0.4964365827329162,1.3133531401636036,0.661956677655276,1.3564591982470948,1.4179143761466768,0.48539702461971773,-1.3227498675789893,-2.290016815473065,2.0485012395404762,-1.96280159481863
-0.5162534939412785,-0.1655102280391145,-0.27753641897915454,-0.18730399428447836,-0.14207160257544624,-2.3085089115188677,-1.7272955062448205,-3.8587455445539978,0.2862574304608346,-0.9058423037665507,3.433029418647737,0.7152601612501395,-0.3655385744366359,-0.8019356090744894,-0.9680931768423393,-1.4799900556643295,2.446283305492651,0.4661288916767605,-0.789933961048922,-0.31918094752938275,-2.9360803071794233,0.6260738776979213,1.2587169723881495,5.682455484291543,0.43352577034422657,-0.43893065276426907,-0.009614234298450737,-0.5169592329476613,-1.3998392089587222,0.5769737560022461,-1.150964825002104,0.9067782923280038,-0.41721113342609845,0.9808633354903528,-4.191828272851674,-1.2723346935421258,0.9118657671355909,1.017777316922558,-0.5214413144947949,-2.156507225384322,0.12843253354135814,-2.7722038165690153,-2.262186925369292,0.9974168612673951,0.5838701469039526,0.5098689088539142,-1.0819875458556265,1.2745397288991616,-0.308469196159123,-1.9224934185601563
-0.17714984963121488,0.23593766776167122,0.8729127938694106,-1.2270529357537696,0.9651615008180612,1.7972353932246496,-3.0012020942229753,-4.244763871217178,0.49360045407456304,0.17987907127875113,3.4142137671990764,0.015609498818019282,0.3489411813644039,-0.020247046813410118,2.095018359962739,0.9453273152161167,-1.2841702936726864,0.4706365069189294,-0.8377895879378142,-0.2237561570880718,-2.1434185907866996,0.7723763078565187,1.7925781249970698,5.829711492080882,1.3766852359325235,0.07898715508577814,-0.4353046935874419,0.532331203436331,-0.9224761794503586,-0.5943745829979219,-0.06880847851347387,-1.8565025590474897,-0.3306833754253546,0.060645444153212005,-3.3212840461769386,-2.2028958406882277,0.223966239168515,-0.6988350388309796,0.6178532950476933,0.2758379166728326,-0.45655418395874775,0.7090226128354464,0.1824702041675677,0.04345146904621208,1.1892714873741717,0.7308358535068623,-0.333596392770844,0.1956059442660876,-1.347520312512742,-2.339296434824117
-0.025897649265141057,0.18122451087097058,0.3528008722637438,-0.5574149882911388,0.17927104113474152,0.46221455410808027,-1.7257753226376542,-3.2905220032145426,0.19484030481661466,-1.4467148751567749,3.0094827608620376,-1.3078902954592273,0.416709885534776,0.4188036262068832,1.144528907636304,-2.173575388010475,1.731904909231066,0.6666163472169988,-0.6592961169421483,-0.16675680478639437,-2.3211430699734343,-0.11037197806267722,0.21357705770523897,4.759068574563849,0.17470233249184372,0.18530307019479803,0.47950122761453423,0.03022598286995521,-1.915040873676439,0.5282216929900665,-0.4956133267477828,0.8515365025773468,-0.24009480958493382,1.1327042537848764,-3.5966675223431,-0.25431448210195023,-0.04433224878678815,1.4875571120978102,0.23708810837439231,-0.11367386810290331,-0.2188306571430497,0.20917626042576984,0.5948922934321165,-0.5424664503103732,1.4120534031206682,0.603288610021041,-0.952657213989238,1.3341349140229086,0.749334603137132,-2.765128766011747
-0.26637937169279846,-0.38217197777756,1.1494367906005765,-0.36904809931427135,0.3593294113372263,-0.6293474498807933,0.12352811151351106,-4.495160127286256,0.007932403721248971,0.8822494419040551,3.299606322534928,-1.817298388606858,-0.5528414369163708,-0.152154320025218,-0.31770505916821223,2.7726544671027233,-1.6507849231318246,0.46585981306646407,-0.42623383030765166,0.3675616601613564,-1.5838864449514949,0.17365004952273955,1.178173330624401,5.900397552662202,0.6821628069514063,0.3180911505861096,-0.49349899279832493,-0.18591803485359443,-1.074897072020447,-0.22010595408767974,1.3627446079144212,-1.8838309048830224,-0.4818407607288258,-0.08626369513479007,-3.1864552862504865,0.9740132512533095,-0.12982381450120814,-1.1553895537917596,0.7514699059077103,1.2110799526822773,1.8725385535769121,-0.7151127598425608,0.20222555320485874,0.15663255384220187,1.1535005111517924,0.49146945391118546,-0.02016176675622047,-1.7984781118599549,1.8976290177858217,-2.2663699437133378
-0.10351423649944408,-1.469650536259048,0.4719743157871478,-0.3308758760392496,0.28948121187476084,-1.8042189549976995,-0.20686834570316126,-3.3591926179071274,0.23011148563371323,0.8408377129008278,3.3546252052268746,0.858635911873093,-1.5832082395284752,-0.4103026148073042,-0.7610677934963985,-1.115904955700267,2.1817535151297194,0.7994389921832399,-0.6749085300653744,-0.2580335263297076,-1.8539297910502206,0.23745969659732669,0.03674844863633657,4.669652035959213,1.4474289132630547,0.5666930962083694,-0.034832786213541946,-0.06012431686378208,-0.4447531171965745,0.21067706398577285,-3.2112840358391086,-1.0262032373817869,-0.460333126847552,0.6068506850468407,-3.4912909533595027,1.547467406663238,-0.5481775853341804,0.1695435341090264,0.2021392417156134,0.9135076941951188,1.3505393216526351,-0.5330251244057203,-2.547017908415855,0.7778491798497671,1.0200300244037805,0.46078502433691954,0.9285594307908243,1.1336902987352,-0.16144738984841048,-2.5260057655798773
-0.7096863461142856,-1.0592914591516407,1.3599257883166724,1.1019531168030925,1.075966350931809,1.8333287637502598,0.8252674500262644,-3.87544630489852,-0.2839683129031586,0.9045915256099382,3.3512187124284956,0.19928761492872651,-1.1354665407029914,-0.7419928086988623,0.6580751577080046,0.8738602446620718,-1.3153548434930178,0.6274782890939771,-0.7579868685952125,0.1648344674231104,-1.3447545208979617,-1.0696521252676348,1.6069598289885323,5.041690395782173,0.450243259450045,0.6533453966100317,-2.700261164140906,-0.306091972722685,-1.9456271204042352,-0.3229568190793853,0.4867442261532974,-0.09191842262071465,-0.04839656102200086,-1.1979346461155342,-3.1693312978290566,1.4562274359081286,-1.5388621901876487,1.8962766924863403,1.047755180081036,1.2950293150174683,0.5044804048981198,0.7404108445927234,-0.31693617429025245,-1.2890996287912921,0.28006183934756385,0.5104469405633073,1.9918356248777025,0.06099012767956437,-1.1839629546296147,-2.2152725480054767
-0.48145832022137103,-0.5891016692114931,0.6374051849765365,-0.5785038330323293,0.7996646966990311,0.36535316509668375,0.7118239748870846,-2.579240195669602,0.36813058814554883,0.13744529873788394,2.781855843761179,1.587108847966251,0.34788156143170024,0.0012640409287431114,-0.13394078773728008,-1.7465033159848729,1.8635254422009784,0.7983800396854671,-0.07878289520825517,0.20258415042057387,-1.6981943592848625,0.605703134771018,0.5538946359171482,3.722204237319774,-2.3281569272537763,-0.8843502219458598,-0.005826442477446703,-0.36647981286534914,-2.240664995220221,1.02864500076978,-1.4134489924620373,-0.22062192607475034,-0.2583188691260539,-0.41264388303765664,-2.878952607056978,-0.02761298973779356,-0.2562836212157792,-0.8854471962769266,0.9054952568409864,0.045607629224168396,-1.1305281812031935,1.1715293139096459,0.5167281134760761,0.30315622658729113,0.3229981901408455,0.8074914124119761,1.6478520962890526,1.3890288938510216,0.8892179289699298,-2.6087283510259067
0.07514074951463787,-0.6786107167426424,-0.9518190093390998,0.19116106812589956,0.3098086178614997,-0.9789532173343194,0.9479000724285026,-3.9204034331251703,0.3514227769940697,0.7597799555934233,3.0594881526718476,0.4559865960251293,0.14289048922815084,-0.10003883732709865,-1.9304998224189387,3.054537176022377,-2.3934552673148835,1.0112943463141195,0.1223794998473554,0.12770401218065217,-0.7608812076018583,1.263154854235609,0.7496057886427336,4.909119534698191,0.1416287540098007,0.4104802469531843,-0.7227075971828861,0.34525486860091975,0.32645419959018923,-0.6479457758165191,2.8309680318642143,0.3498160682174652,0.019537046629836984,1.5159574683424797,-2.7452995926325117,-0.6900013769211693,0.6424613417311476,0.4449115551679875,1.3568584317323582,-0.13521520891721703,-0.2637528504583762,-0.32057963997982436,0.9414911925814976,1.0953672259409948,-0.11154598411647684,0.32371761921587755,-1.6341960244689369,-2.2013687972114266,1.9686470248979473,-2.1601855127744556
0.6741751376677172,-2.5199983300639692,0.23051339081301533,-0.3910168290335977,-2.0651580639088865,-1.6041591837754228,0.4293295177589934,-2.921363998972084,-0.2583993322051792,0.5563289965177113,3.031876325607033,-0.2173472291917599,-0.28450736535441074,-0.9235333207358253,-1.7698203996034838,-2.0169926124735005,2.472453487564558,0.955210266108107,0.4848072943920844,-0.3738304533820875,-1.4973818513703443,1.0998758676889926,-0.3187721185932638,3.9980575448487934,1.8737925631352017,1.3278769832044146,0.6818293355483915,-0.07343850068280414,-0.0683177966772834,-0.8254240244884066,-1.1128436599803753,0.6798516512727721,-0.03750716523152811,1.004664985293867,-2.9464339184339883,-1.2039650708245282,-0.06442449171960815,1.354498964439649,0.935280957967946,-2.04416502127953,0.2753118109894843,-2.0826743291911147,-1.8625737257430468,-0.029122410923600583,-1.0808324155792104,-0.06655584514688742,-1.704513552027388,1.3565616661809095,-0.44642986315734356,-1.9735339013940958
-0.16639283642152203,-2.2333306056812203,1.0250238833501402,-1.4336246988529573,0.5611547437457908,1.7552732639948734,0.7994613719864732,-3.531531070040594,0.015010102109991798,0.2736593394746094,3.1233103180036976,0.2567020896914683,0.22796166105783403,-0.39763078277155306,-1.8723563264561809,0.9848653672168781,-1.179768638416911,1.085781954569361,0.9339236795983988,0.289465134309982,-0.8133132033350045,-0.9513020994454502,0.7224840733393753,4.409682272354827,0.019542054542069913,0.15382704110581671,1.770273526940644,-0.3833271847585025,0.682110445805563,-0.7612758192566244,-0.8119175433211299,0.12183696504229914,-0.24454996735658113,-0.2584984585699458,-2.0353675155058957,-2.849332375616275,1.5458691158373767,-0.7541510696562042,1.2757822530815082,0.23486119593980476,0.12893962400704326,0.5109730456154674,0.13285997119921206,0.8470340755972215,1.3885932008367294,0.588963841593982,0.6428136237747433,0.19438528222436696,-1.8612428455008572,-1.9472784357984987
0.5920802342435907,-1.5048253943221632,0.9505378250663958,-1.4403643702634055,-0.4581790700925095,0.2810200452462638,0.8689674256261882,-2.4425026337226083,-0.20240669536173955,-0.4548867930388983,2.7824807498125286,0.02139771759426124,0.41681971760477543,-1.1020404694392454,-1.8183948988260161,-1.9644818617234894,1.9169393857229182,0.9690177427973206,0.31347482793846276,0.3020885917565777,-1.3832242750474497,0.3931024313063715,-0.9190867750194502,3.4207057165601107,0.6387484402787857,0.8232354292648532,0.7024661915967346,-0.07963974947710784,0.5375795644603338,-1.0423064612298565,-0.18579907013005142,0.21155790477799116,-0.15732951133284695,1.0645148572864624,-2.318177593843002,-0.2720605599338501,0.7454313938450329,1.621399838365896,0.7629893105958865,-0.11202098092391402,0.6382595254994408,-0.9944262731404424,0.42266246800807294,-1.2119640804583638,-0.9266696183224464,-0.11330170514358903,0.06849863315441011,1.4166598800661212,0.7227190499364308,-2.418479472518174
-0.6840957151989234,-0.5835898916365803,0.7133384086014594,-0.7587546408356433,-0.2174433597431136,-0.6813880789356178,0.30644624125810077,-3.4876249157108923,0.4069024694671406,1.0743163975476442,2.8968330259841966,-1.2036692610102235,-0.6293367159358373,-1.087554615909211,-1.6993754286416443,2.884970243949485,-1.9180812078582672,0.7672202838408163,0.4716939110397696,-0.24164542150474935,-0.26426292009183255,1.3607507148571558,-0.07520721444910028,4.233053447362298,1.1851225533869574,-1.208218586353388,-0.0488115390075781,-0.36699446328947793,0.8418174614807935,-0.03440939056610018,1.644861969711931,0.5868450882844033,-0.12799338880649336,-0.8067117475056197,-1.6571417441806624,0.9842313852870602,1.407139715535562,0.28807081693055986,1.8905960731570415,1.0976889869905673,1.099903762520552,-2.137109232501847,0.33891717319947956,0.09446902629107083,-1.7896981569230772,0.15295071606097077,0.2912261721635774,-1.966526440684739,1.8292578627854725,-2.0861857264262533
-0.4341842249411547,-3.029424052604305,0.9626385581359233,0.11791614148034978,0.58011721187761,-1.9699520329715372,0.594373909585725,-2.1994777378968915,0.07321957802430687,0.566873728350864,2.919301577517464,1.4645036521976331,-1.621685133909686,-0.9586745714281599,-1.4893845761280688,-1.5575550745151558,2.441091489818802,0.561074713000466,0.6050663999570729,-0.45638981393951966,-1.3804667463802105,0.35916222087619026,0.48695225906970113,3.2775562061498076,2.0173832158883287,-1.6712439126512328,0.44306191504741366,-0.514155152308593,0.7544369703894571,-0.06749213633263178,-1.3106635093797185,-0.4573308493971127,0.3888815816222143,0.376333240592646,-2.0611317877809947,1.5919740273670997,0.4361116672660743,-0.3761656285660457,0.641415396757648,0.8094712661882955,-1.9843463674768078,0.6649708498280525,-2.7498702788917817,-0.4060067247933577,-0.1666193612197236,0.23809696532970076,-0.09117014463877345,1.271102171697601,-0.05539004862808327,-1.9887525898596645
0.15605664130680866,-1.0182310018627267,1.633507018188585,1.1120630937366636,0.49756580294381975,1.836424633496799,0.15408559645822542,-2.768765514858231,0.2725204181427442,0.9784673726589436,2.965919618130444,0.13901126555700535,-0.7603852273048187,-0.18729006157224184,-2.081014107277158,0.8197733912479825,-1.431925653427738,0.7171464811027399,0.26991411013510297,-0.5500930395724797,-0.5374158992294259,0.13499045052512015,-0.3586063701444299,3.6022945228109253,0.17416103085196386,0.3924052708267715,0.13630094333762924,-0.44099250706134036,0.8039460892052911,0.11957659598124513,0.09432589056557572,-0.5661052000098773,0.2632113235055627,-2.3092893006422797,-1.4739513061081344,1.329429734542364,0.9244815420041071,1.2271771463437842,0.7227731307555124,1.3296359886647646,0.04919805700422904,0.29985454198778516,-0.250357547743736,0.976690988578612,0.8274541788449754,-0.17097449718548569,0.7864845214634317,0.029664330029492713,-1.7879289386516843,-1.8230177038627338
-0.42855179786305714,-0.49856557077035635,0.38279453488291665,0.4569869445223855,0.24865928865503942,0.4295044270556678,-0.4871004747382185,-1.7164778494931066,0.029090947539111647,0.48212644617579914,2.428268298951135,1.1927296514476027,0.5662426609229652,0.13537571561292933,-0.2097470722357624,-1.819990465285811,1.93053946838291,0.5530785637958191,0.2817342103603933,0.2850789524281414,-1.1741099691277557,0.31612497796061256,0.011533120432760958,2.5936228492851345,1.1596327200793686,0.3580339454821597,0.16190680179442624,-0.3883604657461246,0.7406056454948028,-0.48294293042564984,-0.06441603015314334,-0.3525199484152508,-0.16280423523503942,-0.2740431499010522,-1.7002275812605583,-0.10792468866169591,0.4582301234576846,-0.03760108045095626,-0.08199825590250229,0.19755658551568214,0.9192260337970874,0.13473758617317233,0.6474230994534417,-0.5990051280957478,0.4457432081148108,-0.04600548171914058,1.1755402908829713,1.4879261575722882,0.9607920313702686,-2.1186013255497422
0.4297859721922038,-0.7431380446928794,0.14975570233711766,0.403411314862609,-0.4268205960002469,-0.8189251054232977,-0.1863424000194257,-2.879939107872458,-0.27333263663230173,-1.1433703556447918,2.7382721868633535,-0.046046297376674136,0.45100613544727525,-0.6089284980837255,-1.8887381233827991,2.7874220416353,-1.645597793843138,0.5486577512325765,-0.07636934550024825,0.3534075135199457,-0.2014262201884082,-0.13118302149560201,1.0102466833724146,3.63957505017871,-0.8666051484846035,-0.19183547521554095,-1.5014234856506095,-0.4051094221861318,0.27220800471091217,-0.5267276725157751,1.5640258829296172,0.4400898793363654,-0.1435528376423768,1.8750896111954338,-1.4393229728764798,-0.553748488788345,-1.4553350937626022,-0.027451905732159824,0.9471266662870655,0.07564791355564772,-1.651387349179041,0.7357582443362414,0.7847728553532132,1.4979454365012879,0.9426384131806864,-0.4798710393420039,-0.8006485820486892,-1.7979084622686272,1.9466673659042868,-1.5224876326206918
-0.18629254807314533,-1.639894923718152,-0.24590999598190527,-0.011793663270594557,-0.5538641196663621,-1.4579245344393625,-0.8662559699245792,-2.013462909169959,0.012194730082131209,0.31842125475647487,2.7586406197897446,-0.41846959437270875,0.13512156196927497,-0.9657321116040648,-2.1573634363656655,-1.5387235020781955,2.4471801088978777,0.5268949443830189,-0.11624862558690391,-0.2221579136772363,-0.8348121953876977,0.790803516908713,0.2193994949898015,2.748149558153881,1.0349896806410368,0.4645421039611672,1.3805964025053183,-0.03361104705622646,0.31452639213133127,-0.39144096476819956,-0.5607765515575447,1.1214405847846507,0.3443647214305403,0.49103305955815485,-1.561578149071185,-0.9348109332535339,0.3872566297910846,0.6487445530139404,0.10865799674050436,-1.7162558565545525,1.1901568778713318,-2.637056758644673,-1.4480954564524826,1.081935469098518,0.4424530951307046,-0.30941979922533946,-1.5600295174602594,1.451317515897685,-1.092032351156063,-1.963057646168961
-0.009251477973784561,0.7323211070718106,0.2657126412146338,-0.31532138823409767,0.0009996509304789195,1.860976424525332,-2.0574321067085237,-2.3448741629552017,-0.2673402549520866,-1.1632080608332425,2.9096189402167854,-0.29791123878632625,0.889882008037482,-1.124489417904013,-1.7670632859115054,0.9074852559094921,-1.087180243789122,0.18843590063153343,-0.7351969374994345,0.16784307536275644,-0.3208643831572374,0.6106940315475433,0.4308646294400226,3.048861614375691,-1.9687313333804426,0.5378375460563061,-0.25138900268232073,-0.30058657774144265,0.5899634846426743,0.0914783864098615,-0.1781134649262356,-0.1766300431295744,-0.36992712477253625,1.2128076763630689,-0.4269929126061489,-2.478835900934875,-0.39758048100224486,1.203761010720023,0.9346365053212893,0.3576164104048546,0.5264309258941792,0.7366565616778548,0.31571795433927086,-0.10543927755808234,0.3782667012576484,-0.07511428704110058,-0.8203328277654627,0.2347647266143399,-1.7937515875049592,-2.0737688493303117
0.20280435762645588,-0.7205053992730367,0.3452747775993229,-0.8199265941805409,0.44728959366868126,0.5467558914091006,-1.8700725422271387,-1.396622531794882,0.0007702244655061478,-1.338805403378982,2.585560726565615,-0.49436342484581947,0.7364302931286281,-1.99563795614622,-1.0869873625828512,-1.9145931409021817,1.8390732842624136,-0.14097973777227873,-0.8647801449098612,-0.03622958394903189,-1.0864738892684438,-0.1880531449535373,0.20085503635116206,2.2590231428723277,-1.1438857373522873,1.4765554565346957,-0.28605142071349876,0.5658891533355812,0.395128048144782,-0.9729998095127457,-0.09225944194513244,0.9976455669676142,0.4306871579722675,-0.08769841118846804,-0.7254638816982896,-0.3194814174721975,-0.38003799749281164,1.4444253279316124,0.1261498605524243,-0.23454918973559796,-0.7521426667157618,-0.14389942826344043,1.020799896411279,-0.16752739852402718,-0.6916301544333012,-0.3502495178356995,-1.0468064889002293,1.5078487637846625,0.7805264126396231,-2.7830401919923418
-0.09223292366179286,0.5692841041757436,1.2750440203813243,0.36268352027057166,-0.36060758679134225,-0.6012924927010682,-0.7952404628873909,-2.308753601268372,-0.12154154866135378,0.7148524900130506,2.6501160771359813,-1.937971629315535,-0.1410600677709978,-1.166441765328203,-0.4350659839649745,2.7135503012526283,-1.5037391333743844,-0.5982857840858415,-0.9827435918368866,0.5038029063952238,-0.049108097271289106,1.654453894472757,-0.40742850507495937,3.04178169046949,0.5130808832422525,0.36023508078849986,-0.5142275095508849,-0.43255786892932335,0.3307157599216449,-1.921144412617677,1.6708600669949154,-0.014035569998658608,0.10628395522512964,0.09595940548500807,-0.6308305216105641,0.6875145933604636,-1.1133574934382533,0.45945942778552756,-0.19745805621304122,1.2269566647749728,-0.1854430986388789,-0.5672477007503947,0.46767139341156866,-0.6824559764456168,0.6555212660086066,-1.4877294265211833,-0.877769738066154,-1.8456780656958158,1.5121890780166205,-1.5510789834495207
-0.3672790895811398,-0.21817234291632734,0.12552091143622096,0.9252450025543081,0.8788444376020805,-1.2710749747204393,-0.7955411017777223,-1.4739512873492862,-0.4071218006204671,0.9860212428756674,2.753052273986538,0.587033991845073,-1.1575934282392026,-1.7105434145870262,-0.7217768478546245,-1.5024728425273017,2.2103853311821062,-0.9478957631651127,-0.6363580123584384,-0.5217236959183005,-0.8139800792894846,0.979993138409183,-0.8506624415506625,2.3196728009169365,0.6566419326076726,1.0911703048781476,0.36246018802906643,0.4946701710668115,0.1670837757671107,-1.3456519250292789,-1.0344478104207546,0.08594873532031141,-0.4940885541619549,-0.06896921315360194,-1.2733213998886874,1.4040859128278456,-0.35253367582368805,0.7837406349497543,-0.07199140875870885,0.9638761522669181,-0.4090726054587468,0.18052497096603876,-2.4913451905994313,0.8112664485842823,0.2712892588253448,-1.137499825392388,-0.058903242414542874,1.2336516426098616,-0.6266746939221779,-1.8268689798545272
0.16693195686881454,-0.6124652786873325,1.2541091421714337,0.8232943456688024,-0.25180278185350913,1.9020171046375207,-0.34460829867059334,-1.9717401476512884,0.1255934458834166,0.889427863784335,2.7568110740829646,0.1256251445377492,-0.3419242077953931,-2.314309362635916,-0.6475578177617286,0.7878590111922947,-1.0876947140376687,-0.8483310564576995,-0.47569946624990544,0.27213361939958863,-0.2920335532768037,1.1102536961587528,0.7525929666727154,2.726576262792771,0.1106106731918113,-1.0233538184343076,-0.4311453454931468,0.45037896742423034,-0.062111812295282946,-1.516194429034415,0.22712224357357455,-0.6465391736282098,0.37500022962128626,-2.0208586668333335,-0.7548444691542466,1.0713973625651692,-1.1130411307069812,1.8692047718498785,-0.09140581160468612,1.1523060136246885,-0.45537228952517367,0.7587847785906884,-0.08836324321342441,0.18661390765176883,1.0307819283403554,-0.511940464618788,0.24336569157957372,0.13272024282079778,-1.7162963437257288,-1.4456502916235183
-0.5151485817994713,-1.0382475362368258,1.077360966840376,0.3661833594372704,0.660282314774114,0.4372622389915541,0.11083961059947817,-0.843460728130557,0.19085621268729874,0.5037500250049594,2.2496001882278125,1.412218728691962,0.5001064778969057,-0.9813449170114287,0.4983721467715707,-1.9931621177955106,1.898781889570549,-0.8265081688053774,-0.3947169295317897,0.18609742072951696,-1.008780401196568,0.28694720148079345,-0.6212964706759371,1.6756350004536962,-0.824212343857768,-0.5863436355711845,0.5222798678598405,0.3049129945119262,-0.08650971879445074,-1.328066458427113,0.0928919888609621,0.12713952991130958,-0.43890694629322097,-1.3077148749606844,-0.9426521814739042,0.024321237437521275,-0.44809343548749275,-0.18281399014530567,-0.48142247074439437,0.16740110870919922,-0.09044373182947003,0.9084091669392986,0.7382695283401467,-0.0006526922081002737,1.1390285970168386,-0.34777166366940454,0.034045235939866726,1.476486186683143,0.6915879064639158,-2.1125649765133314
-0.2705696362291902,-0.9948841683994076,-2.4110269880184125,1.094706464827168,1.0356307219660341,-1.3700930146032133,-0.3582750483947531,-1.9245089834736377,0.16811162512760736,0.4436433482555279,2.583037363619881,0.5246835202046818,0.43780420202145864,-0.6827248142139943,-0.651810243137328,3.0043270901524903,-2.0998185488624324,-1.3692797114851223,-0.22902553723999666,0.4002870860926959,-0.08763494198663048,0.7135244426302927,1.0001014207951102,2.737349511726431,-0.35441648813432625,1.3550023704862417,1.034211907838359,0.08656699588224087,-0.23876795589068542,1.107988156780706,2.6664033849241053,-0.4125885605536153,-0.4586656155397729,2.2035432127441963,-0.9338538684058739,-0.6138986394698556,0.2872948582108385,-0.9999504846209497,0.07968282535330237,-0.6330621227382384,0.37001027339337705,1.484710814980039,1.0095623099583437,1.0689614488324657,0.519838818804997,-0.5881957490263623,-0.16716894457189344,-2.332323726152042,2.1677939856350026,-1.6011779876039647
0.5995824958106919,-0.9751578292334098,-0.8325415907621336,0.23438295314438165,-0.27646197386440646,-1.9415101643078854,-0.8734969438198259,-1.2441674904019926,-0.09881701510276172,-0.03118973091598195,2.4434682870798476,-1.0261882148227364,-0.037306311746743315,-0.8383935251421998,-1.3017674400711614,-1.7635980465210923,2.515164479120182,-0.20449066169480162,0.2560507404465326,0.1836973926571144,-0.6530159982602839,0.7138207991335005,1.2493179662088798,1.890191631861181,0.4923015275996614,2.219273614509368,0.09149069236341048,0.2568044329023744,0.31229407715612234,0.7804700431927755,-0.9774339083038,1.522408458737954,-0.1468417172291201,-0.8048848620082817,-1.5996515059599317,-0.9515499465386797,0.8862373772189908,0.7871138836915327,0.37476639922988464,-1.7416357485155678,-0.4082012058110474,-1.106848681091884,-1.5333637216894758,0.7829695633437256,0.5775921074622333,-0.92174091223551,-0.13851644711454664,1.4739992754834454,-0.12640667093886782,-1.666852207591107
0.11077431637487394,-1.1030460913669198,-0.941853213008312,0.025951477169994384,1.0641732868696516,1.55611352999156,-0.9648305072962996,-1.6619317576294383,-0.40287094613857977,0.8164086757646083,2.5246562105925507,-0.4214620550230103,0.5102135172989651,0.10499626176040902,-1.0549828041028764,0.9630173591206138,-1.1760427907563733,-0.46775785175491535,0.499912654080443,-0.33914618943000735,-0.05774928550697045,0.379156063987773,1.1661123214386973,2.278567532724905,0.6669229604703418,0.919791964200242,1.619470825699701,0.14015457392716088,0.2159987640554694,1.322710638755381,-0.436060184446885,0.28572157751033406,0.2961271363619477,-0.5559274856866225,-0.4128000360473563,-1.4370865307413596,1.2314639614256284,0.18905728614068468,-1.0063038415311159,-0.273861454573771,-0.20989314088451438,1.8027334100342893,0.21396706471732457,-0.2792082481284005,0.7306060860806511,-0.8072736469472238,-0.48055202037189515,0.09816943792631712,-1.1850648375246986,-1.3207909679496186
0.28505872185518416,-1.4796554166554472,0.04917793135849564,-0.26116188612889063,-0.538790752532432,0.5680999916779675,-0.9704201581748267,-0.6655768760552033,0.41944654335077974,-0.5150082373753657,2.134827392270021,-0.758009919140668,0.8002914184297119,0.2960941662916864,-1.3349599465747923,-2.2230448772093148,1.779849008189837,-0.6608920537028912,0.31139296153652335,0.6365254207135902,-0.8789863652552586,0.35559138892429665,1.289527410889703,1.4315698663397065,0.0809900016703275,0.5279795802280537,-0.5636866756227005,0.3139686190127544,0.42891835390066435,0.8922942020631162,-1.323590302178722,1.0167708633073385,-0.04488423137834363,0.706508023997252,-0.25080266860072764,-0.40715831088010657,-0.48727510601460494,-0.699985189821656,-0.2670477133277507,-0.18624718229444015,-0.5290202032722182,0.6764986543035941,1.028325465613957,-0.11021891465030817,-0.5938754510008677,0.2250134600794031,-0.7622494891956082,1.4772350814534383,0.9450738384932323,-2.177616247932705
0.41314398163600063,0.6428766914182181,0.5337483874160592,-0.5939602990345856,-1.32605448261928,-0.8638229917161353,-1.3413174496920464,-1.6655790892161029,0.23159835317231084,1.2930088100589219,2.348607780546278,-1.023668334999131,-0.27827355642690754,0.16508856258273025,-1.758647963079555,2.5550165082657643,-1.6654559517907923,-0.024904787991444903,0.6905057553697496,0.6558118644316535,0.11625577307150343,-0.6835742903957642,1.0720924157703726,2.3279121491347534,-1.761087023665944,0.0928111352342879,0.9063925055819692,-0.3826274382312581,0.7425177843577347,1.2294083748509792,0.8625132189910654,-0.8399258294594324,-0.2774292509993921,0.448386302960117,0.11097993757332368,0.717576171705395,0.5522069237484191,0.7163610405307238,0.49895326406033563,0.9824571447409604,0.043076960362263536,-1.1273380246963116,0.45646394982095523,0.5696680147135287,-0.24976343032701606,0.5043323943660238,1.0602709769874825,-1.7919665907954438,1.3518652823911759,-1.3278290914109414
-0.20529856708474942,-1.0452362809151348,-0.33175069028723936,-0.18008810662465163,-1.1863804645253386,-1.7034746471559297,-0.932311819982536,-0.8326970557542431,-0.3594289509320367,0.880994877736511,2.3900177109238707,-0.4217619407321577,-1.245782212348861,0.20085008738988533,-1.555783617412135,-1.2924361308066523,2.2710376814422313,-0.12210196747467521,1.0795624945206068,0.007913863742497022,-0.7373617015801437,-0.18029077123852152,1.2296187663525298,1.5981292509239438,-0.1480373342121358,-0.007692234469566881,0.0633139035808267,-0.37757953408126105,0.7127916512611203,1.288612883557616,-1.1652654790397137,0.2806857631232116,-0.4842156959484977,-0.3229909221147579,-0.47006670039966997,1.2776300050742113,0.23350208192710867,-0.09977370925514994,-0.2883396630041732,0.805683102176451,-1.0095862243103282,0.2779414379655231,-2.0969345994405195,0.3140411967656573,-0.09015436843086083,0.4572600253310362,0.9650171203395322,1.291876818287554,-0.2657208815756467,-1.718005125560909
-0.28488904953981736,0.025252297674530112,0.07023912305101086,-0.33353684963232544,-0.7018566554155614,1.8455538748042477,-1.321645827768893,-1.2957132910734914,0.28727968116773794,1.3836876097667776,2.4271774508427244,-0.5258806647829548,-0.47532482081833993,0.335399635247855,-1.0738248347771757,0.622501138132084,-1.3517495102971928,0.45072026873891363,0.6549081460752835,0.0008926295589320205,0.043461456275610745,-0.053079002037815286,1.3981128222471801,1.8361059226039622,-1.011501488798853,-0.6485280114341176,0.8838844492644772,-0.318098064453946,0.6780891714663032,1.2136630189773916,-0.03461573355708573,-1.5865781191456172,0.07786586944928078,-1.5586322819593863,0.028496471639047734,0.7682660234965025,0.274136250327265,1.282080833492285,-1.1324642808815149,1.1152912417867331,0.08701644780617605,0.7938878236995729,-0.09551382489690169,0.4844184653228707,0.3937228350450829,0.6174779821158276,0.7130225103238577,0.20027961993705293,-1.4791563035023758,-1.435690229981686
0.06555188707004643,0.7087609860739525,-0.0776771994279276,0.12417104575640107,-0.8966949192105117,0.6568189869138086,-0.7342186091744786,-0.575351726902647,-0.42264766891235167,0.8516164617366863,1.905860067518263,0.5405910486655067,0.5179296580590153,0.47794779394893744,-0.025653006133553133,-1.9740477423147829,1.5991003912440938,0.20449317679767495,0.2960576177342304,0.3833316659388006,-0.6072950480327742,-1.8032085588838183,1.5681195590278547,1.173925533608469,-2.3641200125818207,0.8945685839626067,-0.7446259387772521,-0.14169885281259353,0.7070975587741417,0.3902643351906856,-1.1755445977494356,0.36976567788878645,0.13260002301125676,0.06259602763891949,-0.5790323780380676,0.015112147901566545,-0.35725052330079293,-0.26014367328816695,0.02694639185931968,0.29181553112998676,0.4695127448684278,0.48963816719103925,0.9635722754996345,-0.38800822708067445,-0.1933559188357909,0.1910078567848414,0.4219033714523911,1.3913606759469899,0.9726286222942362,-1.8441756057287864
0.10361842202114761,0.401322548708035,-1.3270055997997032,0.7812563724976924,1.2064799112031244,-0.9336058270456749,-0.1864607107284839,-1.3242549292299468,0.48711725334765954,0.289206435446883,2.2384388688459453,0.19578510468906254,0.3235165707346133,-0.246946525911267,0.1550077604416966,2.745177606359048,-1.8635386754990126,0.4375304328590706,0.08962082224796075,-0.21342446071304155,0.16487001314492222,-0.3212718242780089,1.4759759393218548,1.9565151024869074,-0.7751135239031571,-0.22930788884448236,-0.010837034497954102,-0.021079401044797462,0.5202456981886955,0.16668730699282933,1.813961469406647,0.7434048869856728,0.47035950676411065,1.020509223062788,-0.3344262940624326,-0.43154034060824753,0.06892821236783694,-0.8538398406491525,0.3383000985610548,0.05574375858040532,0.49844809842684196,1.865184329751423,0.8133652063757625,1.1947393511233524,-0.11220130285289769,0.6862296166850363,0.22295186933887176,-2.0840383737743844,1.7896812315441606,-1.2261805324149226
-1.0778510631315554,-0.29511038599890244,-1.3800306385902497,0.2811554690781321,0.47264435713205505,-1.7630313949946437,-0.931530044719571,-0.6993850532671736,0.10094770363742911,0.25295081031720346,2.288224707017066,-0.018112414986672973,0.08498749212279127,-0.16726332562212437,-0.22289849994986918,-1.6946791484882533,2.4476229544787462,0.7343545544155412,-0.3167578318158229,-0.31955682227199544,-0.5489207635667063,-0.37482426568573696,1.3189043429936171,1.2805907675977575,-0.8374082608131702,0.3461045230858081,-0.23184397814685934,-0.2869052750178845,0.5693030501570265,0.24441336953447076,0.7680854899430112,1.3143080560225635,0.4399894200298254,0.7356892531460109,-0.6571490637769203,-0.9262881029414295,0.783500908944195,0.47611252559282363,0.34976269618237343,-1.3665622178422527,-0.25260146869219824,-0.7213864297088913,-1.3809264582295,0.4883124493398173,-0.427756800360489,0.3746808510333988,0.8047161490903617,1.429093051453486,-0.37053216898453806,-1.6653167859011173
-0.8641190138176251,0.6138896264129803,0.8963858884562266,-0.17170373515710827,-0.3714154146849509,1.5886330900881167,-0.8999686446260782,-0.8216066249137922,-0.12205065842373147,-0.34863096031576885,2.3319521934293403,-0.4945162738449056,1.0529480377209492,0.41203234779180675,0.6064062549562541,0.9064644681198221,-0.8582196892693369,0.4606425291070956,-0.5524956955690121,-0.3531824203452178,-0.06459427025912304,0.8128006209550224,1.1491515402106145,1.4357803275044956,0.7280555637840004,-0.536437436908997,-0.36329793933982324,-0.007275867961725131,0.8070026526097857,-0.02247488226711667,0.619363714560221,-1.3647575960763185,-0.2623882044842468,-1.8773589054354414,0.10154824800648024,-1.6874159991715378,-1.4274930914916308,0.3816602866984354,-0.04717547395861812,0.3084151928314155,0.011366403510241135,1.0024538209130707,0.3862995403475875,-0.2402439418342607,0.11238846405302522,0.45066502435898936,0.9618703350913741,0.16942184966111742,-1.575851736982772,-1.5211533762596403
-0.9605482667640277,-1.0620839980322618,-0.12754801326174384,-0.34698042397052825,1.206651944788738,0.5174329967383586,-0.896966588850515,-0.040040007256806405,0.3972375332101548,-0.925324106827642,1.9957139326961812,0.34663463975224984,0.7794563552387905,0.6601383804398431,0.006378187456632761,-1.7735566420421351,1.728249218118355,0.3343038185742103,-0.810086975563039,0.1302229959973874,-0.8829151460055268,-0.7198779337231939,0.43891675949558057,0.7823656489088343,-0.4937332900115521,-0.4169718355838941,-0.9301103457691006,0.6350499707867585,0.936632615756793,0.8671244930606646,-0.2736345159177755,0.9934107566858777,-0.38326234745098686,0.8063761577151444,0.29621536385746394,-0.47881258029342805,-0.6985382870405098,0.6695770444918332,-0.08594842063495256,-0.15522681135500108,-0.2885208352320424,0.28557318599773346,1.1514517354730156,-0.6562495602219891,-0.7345032861101047,0.4887785177279066,1.1482255796641276,1.4484625350570015,0.7168461187123303,-2.364599376312271
-0.073640462817499,0.4323263296802112,0.23425844030256976,-0.22533986044572105,0.7256407088201818,-0.7152311133499797,-0.7824697764037887,-0.7351673615837481,0.022764539871492098,0.9922627215249812,2.1837017520244926,-0.4143483880805938,-0.002425477400213048,0.3828297513851203,-0.6610727509057491,2.266497247584238,-1.4787424885226168,0.40389776527762106,-0.6147703950634413,-0.33282063550255553,0.01503096100285453,-0.529382880578313,0.367644743177648,1.445083174368043,-1.5131418956065947,-0.3109277071538996,0.7107771616977555,0.16330219263844564,0.6763018244230555,0.5459327764666466,1.0756236641134145,-1.3816310731295358,0.06344425507438484,0.41238579815431614,0.7849429996923264,0.6111503301624889,0.8148083724678133,-0.28845117958154676,0.2678376609735786,0.8808769965799743,-0.855778833854417,0.14899642594468965,0.6261886160302397,0.5196753204223701,0.3550622925329261,0.24596148388313818,0.9094454185025889,-1.6958704563609728,1.2862838112333224,-1.431410933304834
0.26719384122923123,-0.0021630208484237,-0.08838373032914895,0.17082506212327395,0.9805490749631076,-1.4277812691439373,-0.6662572123077403,-0.26022694779128047,-0.12098081003499207,0.63309115227605,2.2925813585544823,0.411506107869471,-1.2161820300712889,0.05287816886953229,-1.0288981097486167,-1.3124797005634132,2.051633646113495,0.5502160243643949,-0.5311479218691936,0.16234740346563223,-0.5830913860000982,-0.013323126222321641,0.3529834162843395,0.9687633448238135,-1.424146514494664,-0.2705973854974318,-0.5311290179554514,-0.0559050414644729,0.6525858246396258,0.2722846405013059,-0.3749984261774976,-0.5280149484414872,0.05188972050197683,-0.21516277272582213,-0.03376541772085851,1.487319424336437,0.7588525099265143,-0.23465823738023012,0.7340271165859051,0.8569871715245874,0.7731257946824536,-0.02692902169515732,-1.736995528744348,1.0204887435161216,-0.42007275605398237,0.5288080923485703,1.3834388061229999,1.1533004960899942,-0.6416462427732588,-1.7395108899928025
-0.23460850691010077,-0.21483746738883155,0.6883466520900358,-0.09474160492088937,0.7886120330976324,1.629599798387936,0.4250244027753907,-0.7347163068096451,-0.01685458073186616,1.210847404284874,2.2032587051005588,0.7509824625697756,-0.4526131238711761,0.45312391639479,-0.1424541140046269,0.6873367346516205,-1.0929810107318219,0.60546222688532,-0.36253138409224644,0.18819255584286912,0.06665669829116365,-0.050925724210305064,0.0279194785889204,1.272528113501275,-0.19491674829858224,-0.8337370021070272,-0.17108768659318593,0.4100344531436948,0.6527986088579819,0.248468658481463,-0.49466056762094557,-0.827115942565555,-0.262833950342293,-1.7308279627688807,0.024580391165291187,1.3351232154700705,-0.4730374508970694,0.5746127539730974,0.18650425817880692,1.320061153057429,-0.2872848327714821,1.3190844000621607,-0.16599886074155096,0.8863345671050822,0.6263393093270454,0.388357451348813,0.9133657378320563,-0.05285850418556627,-1.32380847754169,-1.2307812893565995
-0.6374376193004313,-0.7434049449260969,0.9660847760169273,-0.39298466299872453,1.0063559141461,0.649755606384342,-0.17436444106210694,0.10886961820990446,-0.48431119789144494,-0.03432433179176698,1.8253766229952233,1.4321182397904237,0.5646613047241352,0.44165777879845325,0.062077510210475334,-1.8422298957081928,1.5746720097964426,0.5150461809864971,-0.4467827692984997,-0.5816535988786965,-0.7633859344480913,-0.11557838684713984,-0.3261444046870103,0.5751866149453231,-0.43785052310354555,-1.174159752037534,-0.8296401320232991,0.3679100828045529,0.6986469791500636,-0.29497066953556456,-1.1391015240158213,-0.7520832781865695,0.14484305515884482,-0.49314666675010027,0.21606072542884913,-0.007034715951297412,0.027839550969180716,-0.6857692841855771,0.31449462458861627,0.18778814974481287,-0.26168161236974574,-0.34167612788504953,1.1015112924525112,0.27015458506586587,0.6911393123467042,0.6049598574115037,1.8508462313929122,1.4126915595895917,0.5667676237221853,-1.9292143560076935
0.7792105126248965,-0.16797756222117355,-0.9948579199588427,0.5065900861547226,0.7144364546312577,-1.3685866153814492,-0.05883060716586239,-0.6987517714409142,0.22984616176796815,0.7461522557824999,1.872214569548894,1.1527985971243968,0.3865814488001541,0.2785873494356661,0.4584063129316746,2.5882917714484863,-1.8366648202897924,0.8909346173066209,0.5199832415241031,-0.13150545458224566,0.11436194334131455,-0.6090452645722415,0.19988509601964385,1.3054309450857497,-0.20723881509159076,0.9595122494017354,0.07845988440495115,-0.19904262883057203,0.7545192384411687,0.22611806654767908,2.5074381225394937,0.7317398246451398,-0.3027227228459499,1.352337396888689,0.01788469760603216,-0.24122203500592648,1.5382356011288774,0.016061055011329126,1.1680396826657162,-0.4540251979790131,0.3569991243955761,-0.15054950679942838,1.0354463725276835,0.5021128269997795,0.6889733140104953,0.474560120747948,0.03328934061684995,-2.1216570758857394,1.9757732487028399,-1.051635915129017
0.4102079831711681,-1.1203701873353302,-0.3929402491731949,0.661564349531775,-0.2417284554342993,-1.8497482333021789,-0.07457312568091579,-0.2027724162167487,-0.1905455050092469,-0.24489249348607636,1.9552709227110894,0.9073780010959379,0.09377390672646588,-0.6185426475999491,-0.3559410711576872,-1.4348356708750403,2.4038100390184036,0.6000741830322999,0.6138693934560311,-0.6561397186294394,-0.5139013226282918,0.9087674203972369,1.083923723422475,0.7452767815574256,-0.06636666813566015,1.2283672417201603,-0.6932371892647804,0.40959219747667075,0.6068686243511087,-0.121643342256243,0.32809927034239555,1.1977257647953152,-0.36639992849955755,-0.07248471030658293,-0.3857668227980422,-0.9506872721267636,0.6337213587946167,0.6072526749449639,1.0257456931980349,-1.6777497725928179,-0.9637185454482394,-1.192797832383691,-1.2982195889808794,0.1723525671728528,-0.04625197122783306,0.13949941725465131,-0.8483275263847283,1.4153838576414288,-0.4268051128594197,-1.2636903508402093
0.8486521209011857,0.05146333080405053,-0.09678191507430342,0.33114355821998437,1.0641044031261508,1.5333493210783853,-0.6169095035941184,-0.5665378145365019,-0.03320842170968091,0.25175562115311967,2.0199224321536082,0.11786060132225033,0.5120388730995203,0.1430548815607461,-0.7639709574394357,0.7692075287016621,-1.0464747887612478,0.6336171794542265,0.7066632510371851,-0.14793698569242558,0.15532949814623898,-1.4724596207057319,0.35520169904272825,1.0042469018260738,-1.2481388881270166,0.20997251370909642,0.9626895100591695,-0.10587906033348711,0.7913012396804031,0.26226167813419643,-0.20973360147329626,0.5483787025218293,0.1007773539755707,0.4709478344827161,0.553552645435268,-1.4641815864410372,1.1482090912530265,-0.0037773273349671686,0.9262460316176823,0.1859017801948296,-0.4018548044310211,1.5048741611566367,0.3043669925197314,-0.009999087224480225,-0.2597835151590519,0.440043888580815,-0.17324114733102644,0.04924812260874332,-1.4833663588339734,-1.0891305558856836
0.594776875406527,-0.9189875228589366,-1.091630784623239,0.2779656456812015,-0.8950596293313212,0.5983445126049571,0.0903277676368566,-0.012691336860864976,-0.37025483038400936,-0.6999491291364216,1.7330078489583114,0.35155089401985956,0.709824084300034,-0.046979991594165375,0.20645302642257024,-1.9505902343456978,1.5848997687360353,0.42539748200657934,0.38935341279798585,-0.15973754867604403,-0.5526523091624254,0.543368336975078,-0.14165991938286934,0.599213185814226,0.26524350722085566,1.4278316988779565,-0.7484707034579301,-0.45133525468709,0.7054432582867716,0.9757014239524001,-0.91770580996056,0.17860324417825332,0.3603094487166247,-1.0185884190386318,-0.006635303466640108,-0.2408542106782241,0.6293549406998808,1.463297233633345,0.7556962979455939,-0.09177693764915182,-0.4750324649064274,-0.31017532829818034,0.9443327779201,-0.8079274476752147,-0.6026523755646024,0.13218233984528152,-0.4765198013094472,1.3481667524920395,0.72657218760841,-1.6146971832744008
0.6629055431214523,0.1825649024833932,-0.10776772401812022,-0.2408707208178779,-0.5804027860983548,-0.6603253797265086,0.764956946082152,-0.4726887821946561,0.04686596023710121,0.18399175600567622,1.826731486737886,0.39759279152756477,-0.09640031229605066,0.004540516440211547,0.16564647036823182,2.423223689946862,-1.5382412578125164,0.43728281226153365,0.6782406702657942,-0.2248856402410858,0.16914000426657602,0.9797280680903722,-0.6903805534494704,1.0578937960830939,0.39169168104973023,-0.0385933857186491,0.5320095997549206,-0.2946373926486625,0.7238958411167971,0.07911291167263614,-0.04111181891789752,-0.18624208334897666,0.06431512504021426,-0.03812421540070219,0.7356939644622444,0.6901466922280872,1.9207967431541035,-0.1829099240339851,1.0545181419099436,0.9360225555600198,1.9611714132135394,-3.002727011540595,0.6094458723052038,1.0183786054757946,-0.11255180298413531,0.4955183646444697,-0.0907894714414103,-1.9764626089764972,1.571616774014094,-1.0299629310600253
-0.06694049736154793,-0.8143430771155681,-0.24823544436103356,0.4604156622864428,-0.48718075099890074,-1.2847329950554336,0.4235369241865658,0.003700821339575467,0.07753746747959493,0.6816580408265585,1.9167903995073223,0.30971238431264914,-1.4332741865203942,-0.4162716077533601,-0.19893600612134893,-1.6537304930194177,2.0313485795274397,0.19175324408883318,0.433011355011738,-0.015339335311282013,-0.4708920157645612,0.7437733175739651,-0.711433882703679,0.6035263403032385,-0.46971909438012643,0.2971821313982034,0.37361234477638067,0.09320798273965605,0.7365762533379074,-0.3034775411192354,-0.7024388378127121,0.13817644721186978,-0.020095621635266955,-0.478737373282054,-0.03439711076116157,1.5468267789080492,0.6687261843413467,-0.525714140202822,0.4689085676959682,0.906701069999081,-0.47178532759004266,0.4472778365894045,-2.135524054526172,0.3261369489480712,-0.5924958057841305,0.23445535508261373,-0.14838728461622652,1.1385528551689414,-0.6183511829467387,-1.1164851438104508
0.0306761742944644,0.2726305596267599,-0.0629315385162747,-0.48864926072322495,-0.499106213182193,1.5924983263353842,0.9912387855555359,-0.2872749315495614,0.35839971446323526,0.7352521243336277,1.9308524016419548,0.24739057939213965,-0.5061850466355359,0.12721656638432047,0.17815604292486156,0.605682569766261,-1.2022796630724162,0.3147292706087857,0.4389636975807232,-0.15517321332553774,0.10306289717394856,-1.0408082798516944,0.7841856417519949,0.8013766104462985,-1.2751888965814482,0.4359084770296678,0.8604902149189458,-0.25542384588573236,0.7925536713777092,0.07674249849290564,0.1512484078096384,-0.912195768915758,0.2719848270804039,-0.8122281738037285,0.41055370373945066,1.2014112615315762,1.3537080113114048,1.1966439991018873,0.39607273819377165,1.2168360860397023,-0.10321951400910132,0.390290330046782,-0.03899584893581338,0.6767588349598728,0.3008597250836802,-0.052882502770815056,-0.6221316799733527,-0.08764803367818265,-1.2998429023608373,-0.8886656898348554
-0.3609410525002279,-0.15787302803986686,0.05172547757841192,-0.224352747639945,1.311937279934829,0.6833255226887427,-0.3556603551692997,0.3760900941018791,0.07827108456530525,0.3317790274562193,1.4886768383186675,-0.14891445419096724,0.7862006730020384,0.45332737970636083,0.34767493620091633,-2.0250722335932183,1.5292018238587988,0.1417660809757816,0.5096612371031753,0.08029449835958166,-0.6473656560972737,-0.5748898132348192,0.26333940845623927,0.19653966645118393,-1.0141318650340663,0.03644885037668811,0.6109995158822704,-0.04000415871431186,0.8649762922909658,-0.41683521563031195,-0.7580875047459529,-0.417395237130782,0.11804985188035862,-0.0388758621880008,0.5125141572843569,-0.21885377850669333,1.3243689585039566,-0.46363941115128976,-0.22568224687102229,0.11611383548546719,-0.07944041058441138,0.6539947263916268,1.0548159322603192,-0.6047600790560261,-0.6576797236790823,0.05328778933564746,0.1916634356743889,1.3695097023462564,0.7182502445388236,-1.5563919732760558
-0.07643903174023074,0.12266364246935772,-0.08229371296688465,0.8628909077172426,0.7880385000790034,-1.1062799456882564,0.3450659648450655,-0.28721320048961946,-0.44113494979940726,-0.5901103474556353,1.7416843628402707,0.8801780581549093,0.44561772588456944,0.1912661189231307,0.4397203209507347,2.6399511297315192,-1.5176910978320997,0.2925443545396377,-0.27282695895240666,0.09817273389273704,0.30196137597100947,-0.5860513857358848,0.4219843952414142,0.8171518847613578,-1.2260166740064617,-1.3164879017217994,-0.6999961955874352,0.15323911134495985,0.61437447051374,-1.2718686027695116,1.9325599406638077,0.12065640741512089,0.2964741740906284,1.1172346382550404,0.49366462479483486,-0.2912389515390006,-0.6515395285914369,-0.2931992811820977,0.1380515959317122,-0.3834618605231247,-0.15882277324620775,1.9597542125344691,0.9998813549687465,1.1048952044719957,0.767541864127522,-0.34934683125800065,-0.7709806839485823,-2.278401244603563,1.7581934757479591,-0.9708927822498037
-0.5685519009388798,-1.1897538283846776,-1.0427654251334137,0.4550284838966374,-0.5073145202619121,-1.7123013115088168,0.01846243802053927,0.28189570472508896,-0.4026180767502002,-0.44300935439192524,1.7157831014243803,-0.06048003251106313,0.35283675126242403,-0.05622736407279918,0.3131409585355415,-1.3973881345715258,2.2995235843108963,-0.023539487366903707,-0.4217464236318694,0.037474676251434906,-0.4832740997570101,0.4333817148593443,0.058274867377934025,0.2540634242300202,0.44885689354196806,-0.33936894883853397,0.4512781979760606,0.10865252370756323,0.4433442531662765,-0.46288576796426195,1.4275785056514374,1.0545773744372129,-0.028378760955061158,0.23769406472490198,-0.04647992306343515,-1.117714607797678,0.4266354014244613,1.4545137272939457,-0.33062793307205807,-1.2778494975810661,-0.483605678411225,-0.6459718924171675,-1.1407317646572694,0.5513694680168155,-0.7867022209919017,-0.7134819774732808,0.08983318288544659,1.350996104086914,-0.7836257889015332,-1.07465834493642
-0.05997435361557878,0.43846380075012586,0.02060772040787938,0.686010761255464,0.7824179867720208,1.5830526926999113,-0.15965145020942054,0.22092755603384068,-0.019235993098969423,-0.08017040494105311,1.7341093478653087,0.04107543806019983,0.8538402109360166,0.19595126318034797,-0.1008592849009071,0.5721850922148398,-0.8996586369475752,0.03516427257292664,-0.35721017273202804,0.32128335920473305,-0.044351979200985,0.996283372524009,-0.43678435568072255,0.3398113455146158,-0.03864438087178875,-0.3622870869313532,-0.18824088228985036,-0.3552949236140803,0.4919173109625818,-0.3847928206658674,0.1244360551454772,-0.20377324224047827,0.2614536140244488,-0.049519781588942116,1.236752465513718,-1.1078103417056728,-0.3203993715566964,0.8854806557093925,0.3971169956462889,0.009299007036496892,-0.497725205127348,0.9900069367655805,0.385125801021871,-0.5464464631181816,-0.019623825908959502,-0.8649129008491426,-0.9865479018144117,0.1580214296259177,-1.3305055668053085,-0.8836000843130136
-0.1167170553016819,-0.8879266838667197,-1.4761147456012575,0.3828884597527369,0.6900248747838493,0.5041857516248675,-0.5302417416650126,0.5199635414947011,0.15056310973659112,-0.8230899506497336,1.5768806153633115,-0.47761239237526193,0.7791279729451748,-0.7041807868991576,0.32022001008103407,-1.6039903692995903,1.7012300331638932,-0.418863561351206,-0.6720751059382565,-0.26390632977698936,-0.6326161501921689,0.034343220975195064,-0.7370615457159917,0.045429875889951704,-0.6758366142880323,0.16971883468017301,0.5608916191652209,0.24507148477724397,0.07637845990334612,-0.49495504002423907,0.5989713482861272,0.39711893409176896,0.050436997866677255,-0.5191502502737461,0.8598999317494395,-0.3090171998321011,0.0013447449088384703,1.6017417427566254,-0.9412067672892855,-0.1985679042590313,-0.08909850401216331,-0.4851141414297595,0.9879308395270866,-1.1400755925336217,-0.9313843613465124,-0.9819132478897153,-0.341630032445935,1.414556810528787,0.5551756762376863,-1.5762095124088027
-0.3138098719200737,1.3785689111787176,-0.15478604400524568,-0.3866845229704073,1.1378566068990166,-0.7987021053118405,0.06684211272802018,-0.06284569021101132,0.16392551147465384,0.7287043154460102,1.583765421880559,-0.05966494228090215,-0.13431385753647657,-1.465427491594434,0.10670717438251476,2.4651709985078445,-1.573076771315516,-0.6872736082387091,-0.593509424030091,-0.10976239993823467,0.20209767258054967,1.2372831639368276,-0.03135286101559818,0.6895870693159485,0.09782799920684936,0.32111733015873917,0.4488837918749951,0.28331476546506507,0.08747638379919684,-0.7531491121329766,1.0530347923849768,-0.2992258754461883,0.23097838681251476,-0.3395063175585032,1.3056627788630766,0.610586269087711,0.34053196278515613,-1.441030442216542,-0.44110479905997385,0.8290428525878647,1.985450035933273,0.6962297860549221,0.7140502584620906,-0.031131080248856125,0.4017335839338257,-0.4445946380943485,-0.03056947821853131,-2.104432484432393,1.5575972433434087,-0.5439276555155229
-0.4381815207541511,-0.29833655236993606,-1.2295742858565866,0.3845782394924147,0.13646907782631107,-1.8281307029931961,0.11215809297133861,0.24981580922451044,-0.49017659549967924,0.8081132051981966,1.7766551487371594,-0.6389647977670122,-1.0766521732535073,-1.6867114069239666,-0.4087912120239201,-1.0673556579920567,2.0096625328884947,-0.6895575247552207,-0.7237792250401999,0.12930686935370145,-0.31767353905530665,1.0215473597440232,-0.6323846965934357,0.23930795864365795,-0.834664691069134,0.7424808646253385,-0.057110356145827657,-0.09841430883090871,-0.3783606737656584,-0.9193133411848962,-0.5884056076558251,-0.3811699674470279,-0.3504468972504091,0.6155307650323035,0.4546356699577641,1.3830240543182004,0.26606789770012784,-0.223432345825805,-0.11759907903823076,0.808696097586972,0.08196278186561355,-0.8404249520302661,-2.0296157203964644,0.1557297346345785,-0.5096147675822958,-0.8911687275076722,-0.5941347511645243,1.127500432781024,-0.6220985492449704,-0.8881086178454999
-0.2776370924824484,0.7810755860213329,-0.4218955408326835,-0.4513605871926394,-0.32016858202513554,1.5739081233315233,0.6872298638889426,0.019583801741430092,-0.33766411981921174,0.8652616920710969,1.649734603195738,0.26763443326224057,-0.22409852831495944,-1.4456394938214099,0.18044610694780983,0.6506137438400618,-0.9480858318648705,-0.6971171414679682,-0.8590794074642034,0.2646060260150529,0.1413942998400751,-0.4775927739370098,-0.4377132159797421,0.4088833347990239,-0.5846815489061323,0.3029431007326514,0.16199884790942412,-0.036194255244707124,-0.666012457602475,-0.0702776851979532,-0.8799115362901935,-0.0981323260013887,0.43317094006397916,-0.965721436738924,0.7771110721918562,1.065538007218778,0.08094723723708049,1.2296959767116487,-0.05561019980886292,1.1614212544585103,-0.6202780295521426,0.9709497679081244,-0.05016792362407306,-0.46245801374971923,1.065081282681587,-0.693215793108087,-0.8520954186899362,0.021491553245183318,-1.124884039006725,-0.46542014249525937
-0.286614244149278,0.14278806941650513,0.26357340929744055,-0.28332452141550674,1.045886719204353,0.6817476008229942,0.33148796828850946,0.37966915021519687,0.02985149913665777,0.6494748380962122,1.4660069805796518,0.1350497046953462,0.09727885699489994,-1.6066877079746782,0.44647784125112566,-2.1560440399755185,1.4024251614007304,-0.5377927116210195,-0.8294297044195823,0.8143109894446323,-0.36382170744489,0.16676065098900078,0.4258009295781075,0.10783091152081083,-1.386800588892259,-0.14650774561481814,-0.70072444039673,0.4669551211137592,-0.8356260916976148,-1.368897348365096,-0.7089779697043321,-0.16844519974237118,-0.41127632301234773,-0.7181052284845799,0.3715284204778965,0.42476134173053376,0.5882643942488252,0.7576139082642661,-0.20810018784943535,0.22959897700475682,-1.2017114924754364,0.3279023637075544,0.8109461717550019,-0.9994529158969696,-0.22744731263001852,-0.5518063908380302,-0.5225712278286594,1.2190619784267709,0.5699864255231695,-1.0583591299001913
0.6655236528542925,-1.1414363647901058,-2.0223992048303927,-0.18613135924596558,-0.02871219363000597,-1.2784773517004637,-0.31244410617673996,-0.17457035449940897,0.37648108296386545,-1.2458243388841683,1.507264909824381,0.05327414687071162,0.3826863671723315,-0.410216715741037,0.1014023651514952,2.6930206867091533,-2.042121249671225,-1.3322545671796093,-0.4319098060373057,-0.0030441755965860194,0.3707222071475407,0.5294877652101524,0.6152561148105724,0.6800959239950545,0.22421793823803673,1.3664902644281387,0.15320628809088135,0.2300287819812137,-1.110667775537666,1.0229016469874093,1.5420253804917858,0.8200092809326093,0.35357240201969004,2.4981873441910123,0.34269577218812014,-0.4257305903880204,-0.0895231620516851,-1.1488448972123464,-0.7670677649242338,0.2792660695494448,0.5026317413144404,0.0629484888753308,0.89602462339177,2.049235279964456,1.5804520689826091,-0.837234038838524,0.20676613642056557,-2.323020029117216,1.9674019684539488,-0.378592659298053
0.3656261402185403,-0.24775865938401134,-0.5427911389212123,0.7688479033467864,0.49689710969570394,-1.8383891252251119,-0.4720034792650861,0.4708836470578873,0.35991651180677314,0.26447329549360254,1.4748760415900475,-0.2616403623732665,0.25044706735704786,-0.608125509340031,-0.8394389381883146,-1.560902626853571,2.206002837572595,-1.0422280355893219,0.0932053075182509,-0.1508439504157141,-0.3956758514655848,0.17808778750507576,0.7207391727371236,0.020122495572205884,0.18280126901760382,1.4649965571442958,0.08117736881235078,0.3076684258687342,0.1810879829847968,0.3355911338001278,-0.2585647965375692,1.166928720480105,-0.4771150715090473,0.49418930905641323,-0.04516287072134135,-1.1879562091819427,0.33098193952963145,-1.479431570106892,-0.40221421662495893,-1.5739553556350523,1.8848317337493472,-0.11210060209283072,-1.3607837073710225,1.4656812436361435,0.8211664019455843,-0.16696839670385644,-0.4537161580925267,1.2868879576483567,-0.23913850155626318,-0.7828343742577607
-0.14138543812136684,0.1396508811207192,0.6280160039559248,0.4330003184866343,1.1432729886435569,1.7596684725256158,-0.5173454134766157,0.27235011186115055,0.2721665478934457,-0.28449198939294196,1.4600972605516622,-0.5612793084244377,0.7939849930510458,0.3477743208827898,-0.7712609206758263,0.41723035046221973,-1.080979292279729,-0.9162449770575766,0.38298887060634995,-0.38417563374285807,0.14335898170074315,-0.7359967519776037,0.5720658798042907,0.1528938993832393,-0.755723503357672,1.8838071366112161,1.1069507084478167,0.5019083980388477,-0.5020463895166346,-1.009381243714785,-0.07227085725802514,-0.29946756067441,0.12370014535296223,-1.8708963506670984,0.6947061504342448,-1.1904817838360136,2.233995576310862,-0.08687627578238757,-0.44659577851708454,-0.14801104230627496,-0.4059190205544912,0.8479161999137949,0.39841373111618733,0.16438284315484744,-0.4662210850440007,-0.7904709605532652,-0.5530888250780785,0.24947385352013762,-1.3021023152944697,-0.4030749577051667
0.4580203609162425,-0.3254657384041629,0.314489034723634,0.14295452681803913,0.09479637603048727,0.5722831637791767,-0.09697784572225576,0.70210896453322,-0.21495453823273453,-0.7368733756673184,1.3025089612257177,-0.5241286350188016,0.7882306796264169,0.4218899062847556,-0.1899687205516145,-1.737746633225022,1.4262408177946817,-0.31605220060485456,0.29762528834479607,0.37564687247729217,-0.5394269050995837,0.018148817456055864,0.33279104465060916,-0.1706955307159365,-0.24934767439672292,2.0419919134489573,-0.04076932338251779,0.22947980289259545,0.5906526779182268,0.10130147729154391,-0.9163099406543899,0.22989740730355737,0.2300136073885719,-0.6588334262458428,0.05083591387287325,-0.16779573299193884,-0.0643495070269253,-0.3622179307777883,-0.5498105735539973,-0.10688533255828224,-0.18222925527577416,-0.5022566434997793,0.9590694786291627,0.8080572327318324,-0.7551498368574241,-0.16263286739195618,-0.06086956638123082,1.2592943896084616,0.5464170472859713,-1.3082048685192165
0.28327632743351433,-0.7532446131431553,-0.14227206293492534,-0.04419654507482535,-0.15942726080485806,-0.8396873132168777,0.5154225648409244,0.23228788698842798,-0.11562165807376973,0.3093215758863397,1.2893335826697778,-0.41808764066328863,-0.24436306452918674,0.35059005232002705,0.298534056146008,2.205400641940471,-1.6757735680152164,-0.19416967799980264,0.4137041746507377,0.6243255649383161,0.2578800439084556,0.8858961663656282,0.4195745225185897,0.2905652581325137,0.9429605403653607,0.9984346194942586,0.8739640038702398,0.30871590140076005,0.5358049467322217,1.4438358179456539,0.2735487738250135,0.10313019835317365,0.3087710904129599,0.21869022797280413,0.8763551603092751,0.9052553168627592,0.16416356727629658,-0.24654607330705797,-0.9229975290876578,1.0087976369985625,0.04698547918158107,-0.9361133933372416,0.5770002476657221,1.294183549141744,-0.18047244020265385,0.0076725619619937655,0.021838066223007872,-2.0328790525920706,1.372513718451088,-0.4614794993587502
0.3566066622436178,-1.1978208214552408,0.44864161736709773,0.3247835326446502,-0.39962862307205377,-1.179530578135017,0.6007467282049971,0.7949411726802021,0.034259551602509236,0.45651538618671333,1.4373919125589942,0.28033082861481545,-0.7397417372130884,0.6148109645312125,0.45931170442250074,-1.1695084085822007,1.7892149555836407,-0.07395080295646182,0.5578752176274718,0.4669507293412066,-0.49187054303053523,0.7965302425074303,-0.2704374438295479,-0.18247418187775405,1.03146358051805,0.3885344167674249,-0.43360690545112973,0.18166383819508036,0.7677104106534954,-0.12337568612732891,-0.48713134685746495,-0.04527986833514486,-0.3672866043210716,-0.8216246850474059,0.009278222178270422,1.202148689699032,-0.07431459701661565,-0.08242497552090092,-0.7960352678783134,0.8970425647313949,0.4467114984726745,0.6908688275971424,-1.5565686090615702,1.4978991783506028,-0.04234138587052846,0.1818442217730223,-0.39038441387177775,1.002911826879669,-0.8007936703216454,-0.8616267835524134
0.28991541371249757,1.3135438611672507,1.11246594998185,-0.3059254606262969,1.4344431367433645,1.4393646941876053,0.7560001880036238,0.4597012675719633,-0.18516289928955773,0.7027504147539948,1.338187584985307,0.4825666379552981,-0.275678912894111,0.409120288231844,0.17913941532449304,0.5349845160250662,-1.2389271531897244,0.18287695963709766,0.5053018279897208,-0.25121714298589604,0.0535772842805892,0.3203465650638927,0.9646137098271211,0.009004327694481843,-0.36189171070419274,0.7172325919782214,-1.35798108410468,-0.3243113963344723,0.4101099650470249,-0.32009047824490205,0.6142518376161167,-0.6666232583048515,0.009640450506693021,-1.7024662985491519,0.6345535587900234,0.9986553367973425,-0.4393855664875516,0.11950868538383236,-1.336995315857537,1.0768379666765238,0.6710173929708177,0.8907425849047548,0.031529230861957025,0.3667436250794045,0.12852012613601405,0.46346785426405707,-0.5069638128215183,-0.1420328082405396,-0.9760446586575098,-0.3936180257847377
-0.3499579153044486,0.04318855116681345,0.4804805813630103,-0.7256757118425571,-0.8855988039332464,0.6587154150864938,-0.2133912064083296,0.6794637381572408,0.3575414605526678,-0.24279843011350452,1.1421551685419942,-0.2731992668845396,0.6691842385177944,1.1135250337771705,0.217350586800476,-1.5985878473629214,1.3177339120516052,0.11717630447245495,0.24877716262629307,0.33157041322161185,-0.35836247337383087,0.1535034423235132,0.27004681419767795,-0.2478655834139538,0.7748354777098869,0.8748268939544864,-0.1476569446515485,-0.46410984715352,0.9922194620000861,-0.07236325249633078,-0.11194131133961355,-0.269523515363493,-0.12095174938603377,-0.6744944514939621,0.19436017799438648,-0.01498627481105781,0.157646592510623,-0.7045795609487094,-0.3880800573743078,0.2871918480076294,-0.16703236830150314,-0.21178539821413495,0.9815552698905755,0.42279660456810747,-0.22923658101001226,0.38141018342912103,-0.14110469486354202,1.1899431473511608,0.5454322806772542,-1.1200821352840824
0.13205820785071115,0.18547390282206289,-0.1610779261321075,-0.2747638890643214,-1.6731681013308606,-0.5756692276946738,0.5668714028667027,0.36039607998967604,0.028166327217281704,-0.898867476437213,1.267770431394325,0.48731252829256594,0.5282537165393839,0.8053491923970407,0.05509372384189164,2.094506083628331,-1.3300626122477652,-0.3655505276660621,0.23616973045721193,0.24286934307270924,0.21228863238687076,-2.0988501461336053,0.4002867578809777,0.15854217748734262,-1.5816105038603245,-0.08065628025451359,0.9339981380625513,0.3376899781499479,0.8965835573337341,1.474434287308202,0.5611757685293133,0.9926422378637761,0.4249586895486794,1.8532033515684458,0.8047274340598777,-0.42003879752638157,-0.2027264389201715,-0.19189597741511522,0.7946590655461678,0.39033743172712704,0.28849446456403915,0.14938399868995733,0.9265641197822837,1.8354374944397032,-0.2928679610320864,0.8295336997241237,0.5093683945429308,-1.7390556005598747,1.1491916195339311,-0.5732083895074176
-0.08240441595260758,-0.30417036364276706,-0.5003593575000158,0.032572507121264464,-0.3073192920513836,-1.0936434905080654,0.03735052973469197,0.7462263960243338,0.0719185782128185,0.3560893323217725,1.2147264200748424,-0.2742064435476565,0.45488001080484636,0.7142015927979969,0.17805456245575596,-1.876860684378859,1.9629237141168796,0.36985212723173455,-0.17183818069993162,0.047931858506262574,-0.3205223884119466,-0.3271372032420364,0.41790777562702086,-0.3840563493353492,-0.8150168254226059,-0.18407328765749334,1.152934556862698,-0.47212825886652565,0.7893590564438817,0.7817367762881434,0.5413374551929807,0.9994231752737611,0.35123515465035143,0.3346295009093848,0.0701634047907245,-1.0885161513830293,0.5475277956803173,-0.15770750202173667,0.023410863353825737,-1.101172818008831,0.6237076165757506,-0.40845799855409815,-0.7561023825790536,1.459160977909422,1.2984020458876102,0.7393812820826234,-0.2719809085861288,1.1881686911211533,-0.8991102480571324,-0.8223677282256436
-0.37782559701347973,-0.09591681836016759,0.4073520956722715,0.5120532560910079,0.7358906166675443,1.6297897222427637,-0.20398999975431298,0.5042202086026244,0.420610170553239,-0.2708816221803242,1.1841067709213888,0.502104465499421,0.841196298201598,0.759026973648828,-0.4737754142540507,0.41625050614008074,-1.09342746644587,0.4509705254191549,-0.22148185787817645,0.073431173550536,0.14899725437112157,0.8056279344124445,0.22877806255933236,-0.17864499126830471,-0.9734923496307497,-0.7190820231880258,-0.44982632849962034,0.5356487951129316,0.6625346358689179,0.6626618308645722,0.2578450005265564,-0.37625119649814276,0.21508656229175727,-0.5344567518051953,1.0510224171866624,-1.1724796599677858,-0.34900858643467697,-0.26864115759522084,0.49265731048019595,-0.2634439498275779,0.009696062543690882,1.3650865112365578,0.5686392916443261,0.8973485744636222,0.3235296676900391,0.622824694041732,-0.053199528098443055,0.06886852171508863,-1.1777481411635742,-0.4047315423261816
-0.17706439231526802,0.270446577550748,0.6828454737222508,0.36050483725669324,0.08208028082961631,0.6715872394945337,-0.29604782831871296,0.8412810571898791,-0.0005029691196051967,-1.023453833923216,1.0604754628773017,0.03472138107898089,0.8395696560988412,0.7572735317531232,0.049186574957911115,-1.7785510301685574,1.3016483932236897,0.24209903241466232,-0.8181733518360961,0.31441427709720643,-0.38245869391374776,-0.04918079260800878,-0.10509316450982971,-0.4205467019225458,-1.0453813149269575,-0.23330832091693526,0.2563261455026566,0.5093947889667766,0.6285961728285344,0.8315871956685491,-0.5910667493155054,-0.3633391215293476,-0.37305556117777655,-0.855367869088892,0.6645518794566321,-0.31553314677868866,-0.623828199572149,0.12265078846098099,0.3607936110706545,-0.2950989455004687,-0.37208771465610485,0.274893050570505,1.0852530758286008,0.341499844137967,0.09344083009143206,0.1847504959137932,-0.07577415425279918,1.2031496362346334,0.3619232859426323,-0.97379279303619
-0.3764523202672574,-1.2425165508163525,0.3142947219356953,0.18112306350664345,-0.9960238222259632,-0.6597888845951996,0.13358251570613885,0.36707152357257194,-0.47681355195279773,0.5900479036715841,1.07877371982492,-0.28296794532117103,0.03913418985656726,0.6537403985372661,0.7975548692306437,2.122556013244423,-1.2892014804514047,0.2548697736334218,-0.4942544039993189,0.13553707571613882,0.32582032316682097,0.4096583724391793,-0.37758231866709047,0.010729038152588747,0.32308063591590064,-0.15093297205858358,1.2446627267531558,-0.20208684779802694,0.7038116248659787,1.2525012881961362,1.109531895675607,-0.8047274014035359,0.3728838878210394,-0.06025525010056035,0.8296307211896272,0.7021620398681585,-0.2070786170555128,-0.05316084544676903,0.6776698065437391,0.8616602316958994,0.9413752602657603,-0.27968406908821436,0.5339186656385705,0.4936973354049228,0.29934730211146166,0.7302125686810401,-0.2963763140840397,-1.7182134715484247,1.2506054971505238,-0.35428986903465187
-0.5718635505609695,-0.021697817686753877,0.32937784147366284,-0.0435356091647071,0.7889619714135753,-0.8681331671714547,0.585970634551127,0.7117198802435527,-0.1286672982968326,0.6495255711669804,1.1819832397371126,0.13413168081385204,-0.8902110110260723,0.5461487578928446,0.8136314124436554,-1.557685935328049,1.728996141201185,0.2546684346876325,-0.27303395513420714,-0.012621054734363014,-0.1994211773852254,-0.5999645782550657,0.06263447745059808,-0.3397946280805086,0.3021192229169972,-0.7995334303358472,0.833788775205222,0.0927459213596175,0.7718239549940908,0.3641008718672166,0.32493808661515916,-0.4064783500655769,0.1372678276237334,-0.9732627825686837,0.01640245990128683,1.2071108523305496,0.5789451139869518,-0.12142007682477932,0.09495077787479773,0.8873064308117695,1.0505187744420952,0.5120088086253435,-1.5049506179822978,0.8676860741169576,-0.8044282133800927,0.7052141737866306,-0.5988255531228844,0.9996053202266633,-0.9476690574232709,-0.5391972566379011
-0.6056001892752516,1.0107933031465204,1.1568069482994112,-0.5057720200782176,-0.5844357868188522,1.474703029336718,0.5127689587601365,0.584124601267239,0.4904620446612005,0.5575519447308998,1.145972628233832,0.6085560515221169,-0.08324242343041298,0.6084931973034804,0.38717446201958616,0.4684541799497124,-1.0297725281346615,0.32837065077360467,-0.5569607572996366,-0.3639555068135202,0.24210148724198566,-0.01388741041777322,-0.08850822561007783,-0.2742341654182853,-1.9961509765998329,-0.6839048032397941,-0.7308019521429995,0.2173517468516854,0.6324157313749491,1.0325946894569258,-0.3129156506373792,-0.5294053260649718,-0.047626445486848856,-0.7057023032969179,0.8110505641473432,0.9707276741866606,-0.13486371669897637,0.9334142660252405,0.6736412219837943,0.8826019420735746,0.093599190467589,0.10311720130126908,0.19267266669524605,1.114919930241238,-1.5930526715695106,0.5895295253791342,-0.542439075653443,-0.045590857636130695,-1.1558700661654002,-0.29219445601683375
-0.79033253484331,0.12666440807991422,0.840905747121876,-0.4284611248188297,-0.6687132044424228,0.6224225584870641,0.46112027668499145,0.8796618275456289,0.48176625218653996,-0.28653192769669444,0.8949268681224669,-0.15055743010600087,0.4486903632989651,0.8334758574489841,0.2352404301508514,-1.8890279050630832,1.2789030641785546,0.26627292382342893,-0.014671377858944748,-0.49023589631037173,-0.26221019544937046,-0.5296988421313255,-0.803697944165758,-0.5646905855858008,-0.7387211391103511,-0.6862219861059233,0.3050917222696128,0.4574370732814231,1.029003307692241,0.8261934093779828,-0.8294870722772423,-0.36506164746845704,0.12809228272417056,-0.5878654698772655,0.46438255818438234,0.20173677844870705,-0.5466751232823781,-0.5633010244819686,0.8670546830570065,0.21270352945173931,-0.31162606158097433,-0.5624096345033873,0.8961472232154788,0.42631718947727076,0.49116574850905015,0.8244638694143425,-0.5249306240201317,1.1159956410322052,0.30638328701429673,-0.8717814442148736
0.683538607385892,-0.7010646453920383,-1.4116036097874674,-0.03108001262134947,-0.11356303441733744,-0.4930826972438562,0.2702663988297515,0.47954259042413866,0.16798011179954225,-0.9504950762642765,0.9197812349426872,0.35847566515333384,0.4889255564575291,0.885736994689668,1.2374832427925355,2.1454484556827236,-1.6795903790730675,0.5475678147251833,-0.002270663234080633,-0.13049077217725297,0.34411614854460637,1.0752450600045678,-0.795008518096864,-0.18412285145848556,1.1498350254939236,0.13334604366163258,-1.3596004451923567,-0.39501437239590614,0.8089066517871116,-0.4331063113761418,1.272434969157783,1.0745298822638434,0.24914849265224326,2.110368869383555,0.7902561804832294,-0.24502520182909546,-0.06734196248437727,-0.6249191926553728,0.879485775843775,-0.043635725929886564,-1.3193057178545553,-0.006688206859173767,0.9777361969778943,1.3417238225791666,0.5753790182340298,0.7774381102685194,0.4696356837301344,-1.8338292049512492,1.2938613365288147,-0.33303976489654086
0.7450868225615991,0.11735568813960696,-0.39016257810495375,0.34776279033019303,-0.4882459775731265,-1.4227908469767188,-0.21504640722676008,0.698531729943548,0.4525156355519673,0.5066138576595295,1.0086944646093798,-0.08893778885663366,0.21857161513756893,0.035968564661831785,0.9197086934382085,-1.5168763166034074,1.9681792844051462,0.5074639644563356,0.48251959076123424,-0.4918982354474454,-0.1381021748088974,-0.13089242432473153,-0.3214985779377107,-0.46591839992768147,0.7490516856003133,0.286229043318522,0.1486311363323661,-0.4895939887408571,0.5768137880284933,0.1881424430342259,0.41483732833024733,0.44655062784790556,-0.38542334646228454,0.36095295905183833,-0.11517303867099313,-1.050302543718881,0.30948561531361385,0.8442499475040507,0.8465421423628943,-1.2487100172799581,0.4929261442638149,-0.2330709398608566,-1.23139232135205,0.7463464390364075,-0.3269375517782758,0.39971743996232767,0.20994633558933506,1.1323590254899045,-0.7610953034558748,-0.44045611272414215
0.6093889061234474,-0.5435458786301507,-0.4577849067255903,0.06886237299256998,0.2728338125648706,1.576606432231105,-0.2518767198751171,0.598237974148488,-0.4800947843612872,-0.4513849369683917,0.9258706146815969,0.35591242690894387,0.7674734257887587,0.6477785072305747,0.37387200187871333,0.5005380035543895,-0.9499270236133255,0.44293075424863776,0.5800870251351057,-0.3862890405300322,0.2759392041136542,-0.07022694290505833,0.19434194055385892,-0.379895562869178,0.6285530557042135,0.1429676543085875,0.26274824488122034,-0.5147535514745561,0.7239930409432099,-0.11854540604272172,0.1779357310578916,-0.11361864076416461,0.24535841818923543,-0.027521502910886383,1.0182760815119432,-1.2175927830658915,0.15227244519261082,0.03254395253838532,1.218541877315559,-0.747886337868183,0.09333325790077761,0.6408587772580933,0.3616563649301588,0.2997143414737648,-0.29784880768754823,0.42471564445457494,0.4880858951211824,0.12720187122172175,-1.1752239032629852,-0.08377000280574982
0.8741238164408913,-0.6550544570911803,0.04475109785966538,0.24751342715016317,-0.5704640504057652,0.6331560373957413,-0.03950933603805165,0.8032891811957962,-0.13126486551314606,-0.8496227214387332,0.794806117185095,0.46135702060005235,0.7094741605986152,0.3686719332383189,0.7369526352587661,-1.4942362077571805,1.2966286014073622,0.42951370031397873,0.49434314602385093,-0.5363242380937859,-0.16769306598617695,0.4884095387031518,-0.2857841393461907,-0.5852871537861245,0.589549094802929,0.8894294244490689,-0.0368390492790657,0.20593156252774467,0.5258517063427115,-0.5337423547689292,-0.4011981970378356,-0.2749380031892779,-0.3390154713525822,-0.6067204438264511,0.29421890054602684,-0.34768127174881724,-0.09057312751600546,0.23482501798428754,0.46351510811259483,-0.27581834666578453,-0.5293709854770228,-0.8834222991825385,1.001468127124448,0.19724097287657658,-0.25281624284472914,0.37095808990853024,0.5253244533921094,1.1697663476728288,0.6010148410089658,-0.6865274364120799
0.519404731535966,0.6316995297262188,1.2228512540198817,-0.04612501512982039,1.1754407837026188,-0.7455603154830454,0.47029054246039703,0.44755642637713033,-0.4133669425447482,0.6241147477706215,0.7792051218454222,0.7513084269722127,-0.2859403477986419,0.28083355593825565,0.9129581958615561,2.012604626714394,-1.4117235163976638,0.35994794610973285,0.39976096147877815,-0.1461460115894311,0.5441616338872839,1.9080566431531594,-1.4925117706049158,-0.2370256137074555,0.15822192599931703,-0.5324009903858766,-0.8507420173828537,-0.12960355698353682,0.5113112481026219,-0.3405543838546161,1.2591225294952502,-0.6742252770621558,0.23412701668342648,-0.1641108059908388,0.9412885390350436,0.6773479407449933,-0.42090669881735676,-0.8746087654408397,0.6788639120729781,0.6450663880932274,-0.3255321857213072,0.05606317343852087,0.664836699778159,0.7916077199564033,-1.1686208784410124,0.2684906110831956,0.7539622599017818,-1.8352046545345948,1.223226618545379,0.0078206824610612
0.13016979329817904,-1.1498047979633552,-0.18013102008845008,-0.514001093478192,-0.6549606816627664,-0.9489190819464193,0.22319973333473328,0.7156440603647181,-0.3655505733782214,-0.38485334524116577,0.9588456452604288,-0.01524752277238026,-0.957010179896154,0.02199841173806712,0.9140964136191695,-1.4742430990279283,1.7624692432717222,0.26654004295362377,0.6849647500074657,-0.5198122352688253,-0.05650393746502626,0.9061458478100993,-0.4619912934913226,-0.5094422593716998,1.4816215839247198,-0.1439388618089129,0.3500751171534475,0.3499338568444661,0.5622314504812264,-0.33171854070437573,0.10639258947687559,0.6370716501132856,0.08276868922430577,0.03719323659760117,0.04652912437270696,1.2297582456296094,-0.028595946729556888,-0.3061223689246162,0.5056569580187055,0.9406706985385419,0.4837567488915857,0.5435808394537156,-1.7670709795434092,0.014409411808978046,-0.35429856774477647,-0.2577061886776886,-0.3560839923932327,0.9957217358099879,-0.7109019477227554,-0.19747117772044565
0.24537992662414454,-1.059795933245303,0.7048686892082459,-0.16558400599016626,0.8354744309265594,1.5085495340696906,0.47536476037829173,0.6502832864321223,-0.3606966749647377,0.7523474896010605,0.7773461752982873,-0.304140112758914,-0.393941818185008,0.37534912881505034,0.8101718451447215,0.52741603417954,-1.0915875097600838,0.16223924641804618,0.41509700200646316,-0.17610580189539984,0.3249412661758252,0.703037856607177,-0.5109195991945664,-0.4622860613828112,0.9591840189347739,-0.4000252332690961,-0.04977229457357062,-0.05344055700122818,0.5104005848812322,-1.2425633137530336,-0.7158240821600097,-0.11811080229176438,-0.13381679014778478,-1.2735305547308957,0.8779659395115325,1.005091764413334,0.5648278519827786,0.892875677545017,0.2622811550551365,1.0323146478691905,-0.17014222884350474,-0.5250669096322453,0.0743436933378863,0.2061517250084571,-0.3818814490855069,-0.4351700122999485,-0.04061374429066873,-0.14967018672403098,-1.0981982762410782,0.1215400284721405
0.18693003246025938,0.23012587013243485,0.7274824186184223,-0.1580494556478088,-0.7997276237309571,0.5453143829832782,0.2993193586125131,0.922070525933406,0.08457557545723528,0.6117065216893689,0.7356325633521075,-0.03990014404605123,0.1987335841983588,0.5270196681262961,0.760257811953508,-1.855059149227348,1.2582404803053204,-0.01671974564606307,0.27552957664648337,-0.46182688111783377,-0.14462472269853996,0.6051642252207894,-1.6502464213561698,-0.665576378228362,0.6262950992334497,-0.15553436364864703,0.37577194507917194,-0.10136069615384838,0.4617843178067973,-1.0770569153512863,0.017657069642137792,-0.5418971480522466,-0.3836535127544111,-0.4934752897639349,0.5187035278249448,0.1831427925099492,0.2602428475182449,0.31373163628689876,-0.37272292522079953,0.3669336062279796,0.32662911918555765,-0.18379339954980684,0.7160094025770294,-0.3302681434863082,-0.9631769336603035,-0.6394501461787485,-0.2726128787383428,1.083567910417919,0.29500440407597034,-0.4783760959108585
0.45096969046019214,-0.7061265267717937,-0.3682237262797443,0.06330777910925478,-1.5546427362485764,-0.6677414407290653,0.08296864913051165,0.5762626893436931,0.14811372674220144,-0.3853613793281457,0.5595321521969967,0.5266243316169393,0.4980090640882933,0.30287422313703977,1.0169274949838703,2.213639129389674,-1.2790377884195503,-0.1539216335255169,0.19940920516281094,0.18206893975839444,0.4390957097930396,0.4600688620900572,-0.058587768283419085,-0.36449127472831266,0.922202842013982,-0.40090654853657126,0.4118482198761324,-0.084532604125459,0.3201794840360714,0.43319637737767,1.0982388880121907,0.5646700583348038,-0.29204144576021435,1.1127494045886563,0.9468763634143674,-0.42549171813686,-0.8648007349707955,0.3515790416773848,0.42120366204556775,0.2338841025347605,-0.8246507011225952,-0.1870737653083252,0.9506345663017148,0.7211066668155929,0.6840870945768665,-0.7070342629038678,0.811205121127498,-1.8414648621292253,1.4088638507889013,0.15679731254097284
0.020826072456009915,0.04660130701929849,-1.2155501379291556,-0.15656502821841572,-0.5261822355096485,-1.1266127292460941,0.1676433436428398,0.8201166672996423,0.4369368179894611,0.10172442110312792,0.7776830492778577,-0.419472810241477,0.5049851045570738,0.006883095573841364,0.7430632267068291,-1.3219030637597022,1.9579135874316178,-0.29778878910698686,-0.1199699852224018,0.2948428515076458,-0.08389989446437589,0.28636889681136357,-0.7272782135274305,-0.699295020752069,-0.28129306376714136,-0.4236593746508114,1.2723055188110544,0.35521199407536347,0.10540915198345051,-0.23651795125523567,1.5041735472594313,0.9003699388743106,0.32624088267115137,0.5253064254451035,0.13293693905401346,-1.0975609653040586,-0.3548245969864906,0.49547431240457596,-0.4346316361459369,-1.0955899428313125,0.24910197578792515,-0.45174487362980487,-0.9578096681914974,0.4808798369431744,0.07810141924989608,-0.6846419466170107,0.23692820574644857,1.197276107826439,-0.6650977393249328,-0.18677182292013525
0.03415843976728779,0.780585885712207,0.523719863548359,0.1076803170387059,-1.2397001566439503,1.4664229599602252,-0.7804363008307189,0.5940710754919705,0.09596644705845046,-1.8548097069772056,0.6544596018792478,-0.8291683791652421,0.7233161755358019,-0.22179664689694853,0.3550192006506704,0.670539868973574,-0.7221724975276094,-0.04520407815814725,0.13651981396552398,-0.5709016667272118,0.49479471280808734,0.06998466661568911,0.37667354784084633,-0.557780279321089,0.28030278899090644,-0.8542482734644931,0.21037671642808686,-0.3022740683111269,0.08386074140334632,-0.1343469098967158,0.8184614981899592,0.49395843677703677,-0.11929796782827987,0.3539266673538456,1.0536984733849335,-1.5849138740166586,-1.0450296308856204,0.5837805082149703,0.8516481729987897,0.06357978112020146,-0.141488857513359,0.1744379616657876,0.23826735412943498,-0.12647893593921514,-0.22577201907604597,-0.8215018914148808,0.6978623638248891,0.07029395147304836,-1.3210709872469202,0.35859034049466926
-0.29790949596140637,1.0382830739556794,0.730081750226873,0.6281717612061865,-1.1321168936446648,0.6990001744776825,-0.7154299586064778,0.8701288386463162,-0.2716153805379622,-0.9383304515709237,0.5977633609430093,-0.7581407444461519,0.580822969803205,-1.1220092937058577,-0.03870450773951791,-1.5793555828045163,1.1662270182523442,-0.5179337306709417,-0.7080189460526972,-0.11874600107755022,-0.032395125599302736,-0.028789913448304526,-0.11409558119072369,-0.7323028536192048,-0.9023870966503356,-0.09252569557978768,0.688968509470249,-0.13612482642495471,-0.1600956352052828,-0.7639262538928528,-0.2573526877010532,-0.6886414051663802,-0.18499628245486546,-0.5662969532988978,0.7837476964154302,-0.2700036100560846,0.2329869604323986,-0.07251695895289528,0.07349433646521263,-0.07183184833623134,1.623878582602059,-1.1217171904612175,0.8929022739038052,0.5218531571343362,-1.531434447911763,-0.5269601207409851,0.6834235127424676,1.1212479881354256,0.3528271194643079,-0.33028508851796745
-0.33566969389388956,0.11652495905326697,0.7285726362828068,0.8592678857723905,-0.2716996216943633,-0.6191739607398984,0.28979120954278187,0.49893969609197397,-0.4582822873974875,0.6247065675491585,0.5266610577205137,-0.7423666062436036,-0.2772616625561051,-1.347257683351916,0.8713671442105496,2.186980925152195,-1.4673648137182134,-0.8159845600257165,-0.697569693891238,-0.2926279395804075,0.6148779290628114,1.158346692092858,-0.9606430297486769,-0.34775109700863943,0.2841020213857235,-0.35724429832537574,0.4631765705091709,0.42111602786485597,-0.643451102359957,-0.4093976392314618,1.062769910106461,0.3593588566917509,-0.24886115098223496,-0.6043166091116176,1.1613625002237888,0.7413323255894511,-0.874406041647672,-0.712521030176388,-0.027584725296155972,0.844109896551755,0.9207018054608755,-0.8594831118273679,0.6319431086460048,0.09547813317682871,0.3239169573229414,-0.6963782221739716,0.09472614619862099,-1.9099221430344464,1.2124075242122285,0.44125479549317415
-0.48604831461833853,1.079255624456375,-0.3473108920405223,-0.07726345804918482,-0.8805724028228827,-0.9307346070097295,0.17494168886306175,0.8238613567114195,0.1720457046739984,0.23018349150980108,0.742380816191061,0.09549029953926177,-0.7758728326383023,-1.3687905943244707,0.40266873262208563,-1.312339021424432,1.6768173818436438,-0.5621542348931069,-0.6724357378411492,-0.00809499973193093,0.03237068083966146,0.03315845440156905,-1.1422133524274785,-0.6821537929595043,0.1774283566124985,0.5153315489665967,0.7387248511215404,-0.24546015589786588,-0.9133590477987995,-0.15867109475211702,0.09044121680197756,-0.6351831791325294,-0.06782432849691118,-0.28751820945403717,0.44028137273137397,1.2283768230871024,-0.6363307264408985,0.6315351727250257,-0.43360979699216695,1.015691987039918,0.9411055067944404,-0.07050974923014855,-1.5520851654007897,0.26853507456663683,0.6384654446462567,-0.7011298716448825,0.16098526947411398,0.9323446765108329,-0.8452360869330434,0.14132199173835927
-0.5050168328631978,0.4182578846755077,1.0917665916702861,0.08284486575251948,-0.8859524571687486,1.44835239836786,0.18734990994744477,0.6565734178156231,-0.1742922110123149,0.6149278873143933,0.5719306957845137,-0.07249170921967689,-0.2781123602495573,-0.7904096627537095,0.5062609254693082,0.6018062162117767,-1.0264304521806304,-0.6437732332292324,-0.5508516236866992,-0.07911546627782755,0.47847438075962295,-0.08125998634838114,-0.9270145122715441,-0.6136693708330556,-0.3709888241675021,-0.3452530598686934,-0.3256939313944655,0.028022438179253737,-1.4386689426042552,-0.24792188202083765,-0.8530131639669769,-0.5525774615673381,-0.14208206288094571,-1.0365447512900843,0.9436649861946953,0.9466898600961698,-0.8094265366541913,-0.20826850598356292,0.060125055254404994,0.9996959342169165,0.03961684157993149,0.3753442939780464,0.04043433394278382,-0.2890573668048788,1.072186187220775,-1.163944561229448,0.47743560315786543,-0.13918062334605003,-0.9803510163321104,0.4668538699536025
-0.48122232552882566,-1.0313554675723546,0.40357083238502417,0.38021301814100633,-0.45465212480546224,0.6817104386433278,-0.10036049799952901,0.9559748662491845,-0.15953741019833942,0.2472302620497772,0.4685303024505594,0.0184285581615752,0.984964167770512,-0.9687820911529978,0.4831152476851987,-1.5598123500401146,1.1865610089573377,-0.8223460797834106,-0.7329718236289469,-0.18337702307845782,-0.056003436850850914,0.5075210337434213,-0.2236632653584436,-0.8294936400151617,-0.587002461828526,-0.3096444359162835,1.3458609550895875,0.19455152695521347,-1.306593490863476,0.06665813106656202,-0.4713600991880237,-0.6144035564729708,-0.21355584301903252,-0.5710617911271341,0.7551784204171343,-0.25692252582314185,-0.8794370806782824,0.31681798046676235,-0.3009090490503991,0.05287207127758982,-0.2664563888923515,0.0073218587909319776,0.8883374034359063,-0.5354053775961731,0.47587095013926783,-0.9044712415646943,0.5589519414878367,1.0886472247300047,0.3696844568610545,-0.16641282366757543
0.7364988092127851,-0.21575735396615667,-1.9020479667395154,-0.37205636747910414,-1.2937097305328271,-1.2882159861470086,-0.8939800922084539,0.6574586753819334,0.4493622664610163,-0.46609774659877834,0.30126718182723383,0.5503659298357851,0.33184703862915504,-0.25099998231625364,0.3697830252944431,2.5385965179357446,-1.5743655568037616,-0.970339457741554,-0.4087989517242858,-0.28585820725375016,0.5764615194401643,-1.4421565264128482,0.24204115319218525,-0.5087092706632745,1.4962069706364889,1.1304671230743768,1.1540641489113983,-0.13923489488785665,-0.49690235613401945,0.48145561389038166,1.2695863058229477,0.5701433635522923,0.08278544829769002,2.3618247371848256,1.4836510889575116,-0.14835658887213132,0.8497499863342337,-2.3699812152946,-0.6835253702388177,-0.10460665549941181,0.4163951314032305,-0.23894038660817052,1.0059654766069526,0.7215562297677607,0.6598366783677687,-0.6429468755464615,0.34154143061602815,-2.387767139289081,1.8308832292009913,0.44826923846895406
0.7266138809183261,-0.022691592748713872,-1.0755297688422336,0.7864158004754674,-0.5907357341014253,-1.4601334588415025,-0.2745614964588393,0.7860891591401012,-0.2032578662851654,0.16315679919154738,0.5336106980102832,0.2957102616744903,0.17542834257014842,-0.2225552809269299,0.44593458771376543,-1.1272208538769162,1.9164115457524131,-0.5761708987361327,0.11318977889875977,0.24125180108214625,0.0752061813642881,0.11113183375289498,0.9729118337930984,-0.7864685063443195,-0.22545191730755956,0.583229357883029,-0.2089133596091602,0.020004567348105802,-0.6051446395468327,0.48508751985927556,0.688415609511978,0.4730371417555838,-0.0613449865258787,-0.019618996816999797,0.01584441819460697,-0.9505862294495182,0.4685043450443866,-0.9314075245971061,-0.8144727207527577,-1.2134040255242409,0.06333512820523733,-0.4238673824467366,-1.0328759230687483,0.7702005952577994,0.24237545667044907,-0.45777132288668954,0.040395091354427225,1.1537746739312345,-0.5344950412642593,0.16834641305081177
0.6516498834142589,1.7277454649303592,1.0485492714289928,-0.2628629617022715,0.8616558102079873,1.5344848458583833,-0.46895557708965635,0.8312147251683815,0.1891649449275123,-0.29979741972131496,0.2999557025463311,0.21888009014691362,0.6637246862546019,0.2469988990630244,0.5554087329913155,0.4678336284088138,-0.986933149920535,0.04570404188529156,0.2283313276645029,-0.4640260418144935,0.46901413976212314,-0.8942051233719607,-0.5082790806093845,-0.8964637400579197,-0.033645899996937484,0.7592776646325694,-1.672309873892816,0.2910287246984965,-0.1730188031044436,0.5238552916005038,0.3979966098311284,-0.14254239010867836,-0.17491714416797466,-1.7701654464798866,0.7422909490460505,-1.3121326583020207,0.3601039730164082,-1.2045180222079006,-0.4704871947807258,-1.5548580468780415,-0.6834989838990162,1.7012846238347816,0.3255191614091127,0.39748260857538437,-0.04403212047741667,-0.35569367799233237,-0.35516456797609913,0.16073263072619512,-1.4566858010514505,0.5120885018667674
0.6707938801397202,0.2798852965055868,-0.3528121337230257,0.5943681681863594,-0.40214922690703686,0.6601273184675818,-1.6318798787574864,1.1843067647873715,0.49605456317432794,-0.9353277907375604,0.25603934608727535,0.04720193835551093,0.603054202351058,0.6428939351591233,-0.05460393072865203,-1.895620456531791,1.1443422264184542,0.03301786922740336,0.059913939069718654,-0.2115885404112132,-0.09772952736398019,-0.8902192352249882,0.904755571987569,-1.0468268077798617,1.3456618178426965,0.9758461643885639,-0.6757072161975941,0.44817227292725176,0.44014814459360313,0.4954026766613592,-0.38314008484972134,-0.049788731238058465,0.30151254349087775,0.510557975475553,0.9094815822378746,-0.4038350043277856,0.2742691019323853,-0.018028814199939378,-0.7679842490136282,-0.20497668394273763,-0.989536607249986,-0.17438296257166555,0.9571457117788579,0.04468181495093367,-0.10697327290601658,-0.6294397996782156,0.41100154401649003,1.0632489577039017,0.3236822195098851,-0.26116099494869344
0.560269013058652,0.5065685857110428,0.23855231587932574,0.3443505883115243,-0.8045354308209913,-0.5241386317349207,-0.712867876841786,0.7620218279683724,-0.07499215398968867,0.726580389264998,0.19208314237695673,-0.3611430206730828,-0.504079991761459,0.5599911627742452,0.6328783823069516,2.017635016234267,-1.5454540923042253,-0.327885412041231,0.32616346934964546,-0.30588976954002445,0.6044251560813562,0.5882498729845762,-0.6254406296516688,-0.7146176355711433,1.3583318430176512,0.34325778996484296,0.4558491912283605,-0.18649191318064445,0.20538296842136658,0.9409565760860228,0.7848367390750378,0.563680341438457,-0.4285847728335051,0.46953396762544397,1.3147653426001893,0.8218937237739865,0.14163886783234197,0.18118111513207694,-0.5453993664416706,0.5807912294801528,-0.209925120068945,-1.3060290732373512,0.4911632295436597,0.5936724842994346,-0.9581133466388292,-0.019941491046306912,0.2295457797792811,-1.7706265811132174,1.02816171154377,0.4297103047209688
